/*!
 * The following copyright notice may not be removed under any circumstances.
 * 
 * Copyright:
 * Copyright (c) 2016 by Clement Nicolle. All rights reserved.
 * 
 * Trademark:
 * Master Of Break is a trademark of Clement Nicolle.
 * 
 * Full name:
 * MasterOfBreak
 * 
 * Description:
 * Copyright (c) 2016 by Clement Nicolle. All rights reserved.
 * 
 * Manufacturer:
 * Clement Nicolle
 * 
 * Designer:
 * Clément Nicolle
 * 
 * Vendor URL:
 * http://www.stereo-type.fr
 */
Cufon.registerFont({"w":182,"face":{"font-family":"Master Of Break","font-weight":400,"font-stretch":"normal","units-per-em":"360","panose-1":"0 0 0 0 0 0 0 0 0 0","ascent":"270","descent":"-90","cap-height":"31","bbox":"-222.701 -449 648.928 223.236","underline-thickness":"18","underline-position":"-18","stemh":"19","stemv":"34","unicode-range":"U+000D-U+2212"},"glyphs":{" ":{"w":116},"\r":{"w":116},"r":{"d":"203,-126v5,-8,17,-4,9,8v-8,12,-86,118,-119,118v-27,0,-34,-24,-34,-43v0,-21,30,-57,45,-91v-30,8,-76,32,-75,-36v0,-56,42,-96,67,-96v13,0,25,8,25,23v0,29,-50,97,-50,97r56,-29v5,-3,9,-9,15,-4v7,5,36,30,16,47v-18,24,-85,113,-54,113v10,4,67,-60,99,-107xm94,-224v-16,1,-52,53,-31,72v21,-38,43,-72,31,-72","w":155,"k":{"t":3,"s":4,"a":1,"y":2,"x":1,"w":3,"v":3,"u":2,"p":2,"j":3,"h":1,"g":1,"f":3,"b":3,"o":2,"i":4,"n":2,"m":3,"l":2,"e":2}},"M":{"d":"337,-171v-15,42,-82,94,-82,156v0,56,38,97,76,97v55,1,43,-59,65,-40v4,23,3,17,-13,36v-62,45,-165,-7,-163,-102v1,-65,43,-105,71,-138v-30,22,-122,113,-161,162v0,0,-28,6,-28,-28v0,-47,118,-187,118,-187v-30,0,-185,172,-185,211v0,10,-33,6,-33,-28v0,-97,164,-250,164,-295v0,-14,-13,-27,-36,-27v-48,0,-168,67,-168,140v0,32,56,42,69,17v11,-20,-21,-31,-7,-37v14,1,25,15,15,38v-20,48,-117,26,-117,-27v0,-65,109,-144,211,-144v54,0,61,47,61,68v0,55,-116,178,-116,193v0,0,136,-145,153,-145v17,0,33,21,33,32v-32,67,-98,124,-124,180v27,-29,178,-179,168,-160v15,0,29,18,29,28","w":299},"-":{"d":"222,-105v14,0,20,8,20,11v1,15,-126,18,-144,18v-19,0,-33,-34,-25,-34v3,0,93,5,149,5","w":247},"e":{"d":"179,-126v5,-8,16,-4,8,8v-8,12,-94,118,-140,118v0,0,-34,-1,-34,-45v0,-65,85,-135,109,-135v9,0,26,7,26,41v0,34,-76,93,-95,93v0,0,-14,24,5,24v24,0,89,-56,121,-104xm119,-135v-12,0,-60,76,-60,76v49,-29,72,-76,60,-76","w":128},"B":{"d":"270,-58v-30,69,-104,156,-168,156v-24,0,-33,-15,-30,-34v5,-36,108,-85,154,-114v0,0,56,-104,-13,-104v-28,0,-82,37,-82,37v0,0,-19,-22,-4,-37v15,-15,147,-102,153,-150v4,-27,-16,-36,-52,-36v-95,0,-243,164,-247,196v-4,29,58,-29,95,-70v11,-13,8,-26,13,-26v20,0,36,21,36,40v0,28,-90,135,-90,168v0,18,-30,10,-35,-24v-4,-23,20,-61,43,-96v-20,17,-44,34,-61,34v-17,0,-26,-14,-24,-28v5,-41,139,-222,268,-222v56,0,91,37,85,83v-5,40,-68,93,-85,106v16,0,73,44,50,101v16,-13,31,-32,43,-50v5,-8,17,-5,9,7v-12,18,-37,48,-58,63xm83,-222r-7,8v3,-3,5,-5,7,-8xm94,77v22,0,82,-51,112,-99v-40,25,-114,67,-117,90v-1,5,0,9,5,9","w":267},"k":{"d":"235,-126v5,-8,17,-4,9,8v-8,12,-84,118,-120,118v-28,0,-55,-61,-55,-88v-19,31,-38,68,-38,80v0,14,-27,7,-27,-21v0,-58,123,-210,123,-254v0,-12,33,4,33,35v0,19,-49,90,-85,149v3,1,6,4,9,4v19,0,99,-60,99,-89v0,-17,20,-6,20,28v0,34,-44,71,-110,71v3,12,16,67,36,67v22,0,74,-60,106,-108","w":178,"k":{"t":-5,"s":-5,"a":-8,"z":-9,"y":-7,"x":-8,"w":-5,"v":-7,"u":-4,"q":-9,"p":-5,"j":-5,"h":-8,"g":-5,"f":-3,"d":-8,"b":-7,"o":-7,"i":-4,"n":-7,"m":-6,"l":-7,"c":-9,"k":-11,"e":-8,"r":-5}},"S":{"d":"234,-121v0,-64,-84,-98,-121,-98v-37,0,-67,11,-75,11v-8,0,-8,-40,-8,-60v0,-19,50,-61,193,-62v5,-13,10,-30,8,-44v-1,-12,-13,-16,0,-18v13,-2,44,15,47,40v3,25,-16,51,-26,74v-10,23,18,34,-4,37v-10,1,-22,-13,-28,-21v-117,0,-128,11,-128,11v0,0,159,10,159,134v0,96,-103,207,-207,207v-78,0,-112,-83,-112,-130v0,-47,58,-123,139,-123v81,0,94,66,94,79v0,13,-12,22,-12,17v0,-5,-14,-45,-94,-45v-80,0,-110,51,-110,72v0,21,26,75,101,75v99,0,184,-97,184,-156","w":239},"c":{"d":"67,0v-36,0,-49,-27,-49,-60v0,-33,62,-121,90,-121v11,0,14,14,14,14v0,-3,16,-14,16,-21v0,-6,15,4,15,32v0,40,-24,30,-24,66v-26,0,-29,-40,-29,-40v0,0,-42,43,-42,89v0,17,10,22,19,22v11,0,75,-61,107,-109v5,-8,17,-5,9,7v-8,12,-93,121,-126,121","w":132,"k":{"s":1}},"C":{"d":"275,-125v6,-9,18,-4,9,9v0,0,-55,137,-208,137v-53,0,-102,-37,-87,-117v16,-91,80,-164,146,-212v47,-34,104,-53,137,-12v4,-10,7,-23,10,-35v-12,-17,-14,-32,2,-36v13,2,41,28,36,65v-4,27,-19,51,-29,74v-12,26,12,43,-7,43v-11,0,-24,-36,-24,-36v-7,-7,2,-54,-22,-49v-100,22,-190,128,-208,235v-8,46,16,64,46,64v143,0,199,-130,199,-130","w":221},"l":{"d":"46,0v-27,0,-32,-27,-32,-44v0,-40,131,-231,131,-270v0,-10,34,3,34,39v0,36,-157,256,-122,256v11,0,69,-61,101,-109v5,-8,17,-5,9,7v-8,12,-88,121,-121,121","w":105},"m":{"d":"197,0v-14,0,-24,-16,-24,-43v0,-30,60,-106,60,-106v-5,0,-63,45,-85,76v-16,22,-37,63,-37,70v0,10,-22,-12,-22,-39v0,-30,60,-107,60,-107v-12,0,-123,129,-123,146v0,10,-24,-6,-24,-34v0,-30,72,-108,72,-144v0,-13,26,2,26,38v0,17,-15,39,-15,39v0,0,73,-77,85,-77v21,0,32,39,14,59v18,-18,59,-59,69,-59v12,0,21,18,21,36v0,18,-87,130,-71,130v16,0,75,-65,107,-113v5,-8,17,-5,9,7v-8,12,-82,121,-122,121","w":258},"n":{"d":"113,0v-14,0,-25,-19,-25,-46v0,-30,53,-102,53,-102v-12,0,-114,120,-114,137v0,27,-25,-1,-25,-29v0,-30,71,-104,71,-140v0,-13,27,1,27,37v0,18,-13,30,-13,30v0,0,66,-67,78,-67v13,0,20,18,20,36v0,18,-84,126,-67,126v22,0,74,-62,106,-110v5,-8,16,-5,8,7v-8,12,-83,121,-119,121","w":172},"N":{"d":"130,-32v0,-73,89,-156,89,-156v-30,0,-186,172,-186,211v0,10,-33,6,-33,-28v0,-97,165,-250,165,-295v0,-15,-13,-27,-36,-27v-48,0,-169,68,-169,141v0,31,56,41,70,16v11,-21,-24,-32,-7,-37v14,1,23,15,14,38v-20,48,-117,26,-117,-27v0,-64,110,-144,212,-144v54,0,61,48,61,69v0,54,-102,153,-102,168v0,0,122,-121,139,-121v17,0,23,32,23,43v0,22,-85,100,-85,159v0,69,26,141,75,141v50,0,62,-46,62,-46v0,0,0,-13,14,-13v12,0,6,20,6,20v0,0,-17,55,-78,55v-61,0,-117,-71,-117,-167","w":204},"i":{"d":"120,-189v-8,0,-23,-15,-20,-41v2,-26,19,-35,27,-35v8,0,33,11,32,23v-1,12,-12,15,-23,34v-11,19,-11,19,-16,19xm157,-127v5,-8,16,-5,8,7v-8,12,-86,119,-119,119v-27,0,-34,-30,-32,-49v2,-26,39,-70,56,-113v3,-7,0,-16,9,-16v9,0,26,15,23,43v-3,28,-83,117,-45,117v11,0,68,-59,100,-108","w":106,"k":{"s":1}},"o":{"d":"130,-48v-18,22,-44,46,-73,48v-14,0,-39,-7,-39,-45v0,-81,101,-183,152,-106v1,3,-2,8,-18,8v-60,0,-120,128,-89,128v21,0,60,-43,60,-43v0,0,-3,-9,-3,-22v0,-29,36,-41,36,-11v0,6,-6,18,-18,33v26,9,36,-24,69,-69v5,-8,17,-4,9,8v-8,12,-48,95,-86,71","w":157,"k":{"s":2}},"b":{"d":"235,-127v5,-8,16,-5,9,8v-6,11,-153,187,-203,88v-3,6,-11,23,-11,26v0,14,-27,-4,-27,-28v0,-37,138,-216,138,-265v0,-8,35,7,35,37v0,14,-23,53,-44,86v28,-8,58,-10,58,37v0,35,-20,71,-44,98v32,-22,69,-57,89,-87xm47,-43v85,26,158,-183,66,-102v-27,38,-34,45,-66,102","w":186,"k":{"s":2}},"d":{"d":"137,-19v11,0,69,-59,101,-107v5,-8,16,-4,8,8v-8,12,-87,118,-120,118v-17,0,-33,-11,-33,-46v0,0,-36,46,-51,46v-15,0,-38,-13,-38,-45v0,-50,86,-134,121,-134v26,0,33,22,33,22v0,0,79,-125,79,-146v0,-12,30,-10,30,36v0,41,-155,248,-130,248xm45,-21v22,16,122,-131,100,-128v-18,0,-100,87,-100,128","w":188,"k":{"s":2}},"f":{"d":"181,-128v5,-8,16,-5,8,7v-7,10,-61,82,-105,94v-25,60,-69,144,-92,144v-31,0,-26,-38,-18,-75v18,-89,152,-278,172,-353v0,-10,34,2,34,38v0,22,-50,101,-89,164v19,13,12,40,1,62v17,-5,60,-37,89,-81xm4,85v12,0,44,-61,64,-111v-7,-1,-12,-5,-16,-9v-31,64,-53,120,-48,120xm76,-48v9,-26,12,-45,5,-45v-5,14,-24,36,-5,45","w":129,"k":{"s":1}},"g":{"d":"230,-126v5,-8,17,-4,9,8v-7,12,-84,105,-121,118v-36,66,-98,140,-157,139v-14,0,-32,-13,-34,-36v-2,-24,129,-82,129,-82v15,-17,49,-81,49,-81v0,0,-47,59,-60,59v-13,0,-36,-16,-38,-42v-4,-41,75,-137,116,-137v21,0,39,38,31,38v-42,0,-128,123,-102,123v9,0,76,-83,72,-90v-4,-6,26,0,28,26v1,12,-7,34,-21,61v21,-13,72,-63,99,-104xm-51,116v35,0,94,-78,94,-78v0,0,-107,54,-106,67v1,6,6,11,12,11","w":180,"k":{"s":2}},"h":{"d":"131,0v-23,0,-33,-30,-33,-51v0,-21,51,-96,51,-96v0,0,-119,107,-119,141v0,14,-30,-1,-30,-25v0,-36,138,-220,138,-260v0,-7,28,7,28,37v0,30,-91,157,-91,157v0,0,85,-82,100,-82v15,0,19,21,19,38v0,18,-86,122,-52,122v11,0,67,-59,99,-107v5,-8,16,-4,8,8v-8,12,-85,118,-118,118","w":192,"k":{"s":2}},"j":{"d":"151,-128v5,-8,16,-5,8,7v-7,12,-83,104,-120,118v-37,65,-96,135,-154,134v-14,0,-32,-12,-34,-35v-2,-23,129,-82,129,-82v36,-59,69,-123,84,-180v2,-7,-1,-15,8,-15v9,0,25,13,28,41v3,27,-34,92,-48,115v22,-14,72,-63,99,-103xm-127,108v35,0,94,-77,94,-77v0,0,-108,54,-107,67v1,6,7,10,13,10xm110,-192v-8,0,-25,-15,-28,-41v-2,-26,13,-35,21,-35v8,0,36,11,37,23v1,12,-10,14,-18,33v-8,19,-7,20,-12,20","w":99,"k":{"s":2}},"p":{"d":"237,-128v5,-8,15,-5,8,7v-6,11,-55,60,-89,72v-22,27,-49,49,-80,49v-22,0,-22,-12,-22,-15v0,-22,57,-38,57,-38v0,0,47,-79,47,-101v0,-5,-2,-12,-10,-12v-40,0,-166,224,-166,246v0,15,-25,-7,-25,-30v1,-44,129,-205,119,-247v0,-7,35,-14,35,34v0,10,-3,17,-3,17v0,0,26,-34,52,-34v26,0,32,21,32,38v0,17,-2,44,-22,74v21,-11,48,-31,67,-60xm77,-20v0,18,30,-23,30,-23v0,0,-30,14,-30,23","w":186,"k":{"s":3}},"q":{"d":"215,-128v5,-8,16,-5,8,7v-8,11,-88,125,-123,131v-34,54,-61,109,-61,119v0,15,-26,1,-26,-22v0,-25,65,-125,90,-170v0,0,-56,63,-69,63v-13,0,-34,-19,-34,-45v0,-41,88,-135,128,-135v21,0,35,36,27,36v-73,0,-152,125,-112,125v9,0,87,-85,83,-92v-4,-6,22,0,22,26v0,13,-14,41,-35,74v20,-14,74,-75,102,-117","w":164,"k":{"s":3}},"u":{"d":"120,0v-26,0,-36,-41,-22,-60v0,0,-43,60,-65,60v-15,0,-31,-12,-29,-39v2,-25,64,-104,67,-138v1,-8,34,4,32,33v-2,29,-87,129,-63,129v9,0,118,-122,121,-163v1,-8,32,8,30,37v-2,29,-84,127,-62,127v11,0,70,-64,102,-112v5,-8,16,-4,8,8v-8,12,-86,118,-119,118","k":{"s":3}},"v":{"d":"66,-177v0,-9,40,-1,40,32v0,33,-76,118,-57,118v19,0,130,-123,130,-176v0,-43,-30,-52,-42,-46v-11,0,-14,-11,3,-11v16,0,76,23,76,79v0,56,-142,159,-152,169v-5,5,-10,12,-20,12v-22,0,-30,-30,-30,-48v0,-26,52,-88,52,-129","w":168},"w":{"d":"14,-39v0,-26,53,-101,53,-142v0,-9,37,3,37,36v0,33,-80,130,-54,130v7,0,36,-28,54,-50v2,-10,12,-60,38,-60v9,0,13,6,12,16v-4,26,-34,47,-34,47v0,0,-7,48,14,48v44,0,84,-154,84,-198v0,-45,-34,-52,-34,-52v0,0,-3,4,-15,4v-11,0,-6,-13,10,-13v17,0,76,25,76,84v0,71,-77,189,-115,189v-29,0,-36,-23,-37,-45v-17,21,-42,45,-58,45v-14,0,-31,-12,-31,-39xm141,-114v-13,0,-20,35,-20,35v5,0,32,-35,20,-35","w":214},"x":{"d":"163,-21v11,0,72,-59,104,-107v5,-8,17,-5,9,7v-8,12,-90,121,-123,121v-40,0,-47,-26,-48,-62v-30,21,-61,37,-61,57v0,14,-19,-3,-19,-19v0,-30,44,-56,82,-76v0,-21,4,-42,4,-61v0,-25,-43,28,-53,42v-5,8,-17,3,-10,-6v19,-26,37,-55,67,-55v13,0,35,16,35,59v41,-19,83,-35,83,-49v0,-6,-4,-14,10,-14v3,0,4,9,1,17v-8,21,-48,47,-91,74v1,40,-5,72,10,72","w":217,"k":{"s":3}},"y":{"d":"217,-128v5,-8,17,-5,9,7v-7,12,-83,104,-120,118v-23,37,-53,73,-82,99v-26,24,-48,40,-76,40v-14,0,-32,-11,-34,-35v-2,-23,129,-82,129,-82v4,-5,10,-13,16,-23v-20,12,-43,-5,-47,-35v-3,-26,57,-104,54,-138v-1,-9,28,5,31,34v3,29,-69,128,-47,128v25,0,97,-124,93,-165v-1,-7,24,10,27,38v1,19,-17,64,-48,115v23,-16,69,-62,95,-101xm-64,113v35,0,94,-77,94,-77v0,0,-108,54,-107,67v1,6,7,10,13,10","w":168,"k":{"s":3,"\u0153":1}},"z":{"d":"186,-147v-8,-2,-96,9,-95,-11v-12,13,-30,33,-35,41v-6,9,-17,4,-10,-6v12,-18,28,-35,41,-47v0,-3,-1,-5,-1,-7v0,-28,25,-17,23,-2r85,-3v23,0,24,20,24,28v0,18,-121,84,-153,118v13,0,99,-1,99,-1v11,0,57,-42,89,-90v5,-8,16,-4,8,8v-8,12,-87,118,-120,118r-103,0v-9,0,-20,-1,-20,-12v0,-51,168,-127,168,-134","w":183},"A":{"d":"305,69v0,-15,13,-12,13,0v0,12,-14,31,-60,31v-94,0,-115,-98,-115,-157v0,-59,25,-106,25,-106v-26,2,-45,10,-68,14v-27,29,-123,125,-203,125v-63,0,-99,-51,-99,-112v0,-101,131,-174,223,-174v56,0,73,58,73,72v0,14,-11,6,-11,6v0,0,-10,-35,-76,-35v-103,0,-195,81,-195,132v0,0,-1,72,73,72v56,0,130,-51,162,-75v-18,4,-33,7,-44,8v-61,8,-81,-34,-84,-54v-3,-20,9,-7,9,-7v7,25,136,23,173,9v0,0,120,-117,120,-139v0,-11,45,16,45,52v0,7,-21,48,-33,70r59,-12v4,-1,5,2,5,6v0,6,-8,10,-30,16v0,0,-18,6,-45,12v-9,12,-43,79,-43,145v0,96,46,127,84,127v17,0,42,-11,42,-26xm135,-185r45,-7v12,-26,58,-101,58,-101","w":217},"D":{"d":"-54,92v-68,0,-103,-39,-100,-79v6,-66,103,-142,203,-154v26,-41,31,-51,32,-64v2,-23,30,12,28,34v-1,8,-2,10,-16,32v35,8,45,42,44,58v-2,19,-9,11,-8,5v1,-12,-25,-26,-57,-28v-24,38,-42,65,-44,89v-2,26,-31,-8,-30,-29v2,-23,16,-37,26,-57v-70,18,-136,70,-140,124v-3,31,14,59,58,59v163,0,296,-273,301,-337v5,-64,-209,37,-211,63v0,4,1,5,1,8v-1,10,-33,-15,-32,-33v1,-17,95,-85,191,-85v72,0,92,49,91,71v-9,120,-171,323,-337,323","w":230},"E":{"d":"178,34v-71,21,-178,-2,-178,-115v0,-95,134,-128,180,-128v0,0,-22,-21,-22,-58v0,-44,58,-84,119,-84v61,0,75,36,75,46v0,10,-10,8,-10,4v0,0,-13,-26,-66,-26v-48,0,-72,47,-72,64v0,58,44,55,44,61v0,6,2,15,-40,15v-92,0,-145,54,-145,114v0,49,25,93,69,93v49,-11,32,8,33,-29v0,-18,18,-27,18,-27v-4,12,4,36,4,36v0,0,21,-9,21,-30v0,-21,-18,-17,-18,-17v9,-18,44,-16,44,20v0,21,-20,38,-36,49v28,43,71,68,104,62v17,-4,20,-13,20,-13v-7,-8,3,-25,7,-7v4,19,-9,40,-46,48v-40,8,-80,-31,-105,-78","w":241},"F":{"d":"-56,-187v-49,0,-103,-45,-100,-92v4,-49,47,-99,125,-99v64,0,185,51,220,67v3,-4,44,-29,99,-24v34,3,74,31,72,64v-16,48,-122,35,-159,12r-38,66v13,5,50,11,76,11v1,3,5,15,-26,25v-28,10,-42,-1,-71,-4v-40,63,-84,140,-83,160v1,11,-25,-3,-27,-35v-2,-35,44,-94,61,-126v-16,-8,1,-29,19,-37v28,-12,41,-61,55,-79v-5,-3,-137,-69,-209,-69v-79,0,-112,65,-66,106v30,26,101,34,107,-13v2,-19,-21,-31,-33,-29v16,-30,84,-8,81,25v-2,35,-44,71,-103,71xm296,-273v45,0,69,-20,26,-38v-29,-21,-102,9,-96,17v22,9,43,21,70,21","w":187},"G":{"d":"50,-181v46,-62,128,-155,216,-155v53,0,52,48,49,65v-12,65,-166,107,-223,117v-21,26,-43,58,-51,88v-24,94,134,48,163,-15v8,-18,19,-54,15,-68v-2,-9,-11,-12,1,-15v12,-3,28,8,34,41v8,44,-106,314,-219,345v-17,5,-38,-5,-43,-33v-5,-29,154,-149,154,-149v8,-11,24,-40,38,-72v-75,51,-206,49,-176,-64v4,-16,14,-35,28,-55v-34,2,-68,-12,-73,-35v-9,-36,23,-61,33,-61v10,0,-10,9,-6,25v5,19,28,34,60,41xm21,197v45,-12,111,-132,111,-132v0,0,-131,107,-128,123v1,8,9,11,17,9xm107,-175v71,-3,160,-40,182,-92v5,-11,-7,-19,-16,-19v-54,5,-133,68,-166,111","w":246},"H":{"d":"319,-182v6,0,9,6,6,10v-13,15,-51,31,-83,32v-27,43,-58,109,-58,134v0,19,-34,-4,-34,-39v0,-22,22,-62,37,-94v-26,1,-57,3,-87,7v-31,51,-68,122,-68,143v0,15,-35,4,-35,-37v0,-15,25,-63,43,-96v-39,3,-67,4,-67,17v0,16,-25,1,-25,-16v0,-40,53,-37,116,-44v49,-83,127,-212,127,-236v0,0,1,-34,-44,-34v-64,0,-172,104,-160,196v2,17,11,47,42,47v30,0,42,-30,42,-16v0,17,-30,28,-53,28v-19,0,-68,-11,-76,-73v-16,-127,134,-196,202,-196v44,0,88,23,88,70r-1,-3v4,30,-65,143,-111,217v32,0,56,1,80,1v40,-75,67,-97,64,-119v-1,-8,31,5,31,37v0,23,1,23,-38,82v48,-2,55,-18,62,-18","w":252},"I":{"d":"10,-202v0,10,-32,-16,-34,-33v-2,-17,88,-118,185,-118v72,0,95,59,97,71v15,110,-192,313,-280,313v-87,0,-68,-65,-63,-65v5,0,3,38,21,38v118,0,289,-248,280,-310v-9,-65,-207,69,-207,95v0,4,1,6,1,9","w":190},"J":{"d":"158,-349v55,0,99,52,99,98v0,110,-206,377,-275,377v-69,0,-73,-34,-73,-46v0,-86,208,-257,288,-279v0,0,22,-52,22,-89v0,-20,-12,-39,-32,-39v-80,0,-243,142,-243,155v0,4,5,9,-1,9v-20,0,-34,-20,-34,-34v0,-25,172,-152,249,-152xm-55,96v66,0,240,-266,240,-266v-146,50,-259,234,-259,250v0,16,11,16,19,16","w":202},"K":{"d":"5,-50v0,-88,160,-239,160,-278v0,-21,-21,-25,-33,-25v-74,0,-204,109,-204,190v0,30,16,49,38,49v35,0,38,-26,41,-26v11,0,7,38,-47,38v-53,0,-78,-37,-78,-67v0,-99,131,-199,247,-199v46,0,64,27,64,68v0,45,-77,135,-77,135v71,25,186,-81,186,-136v0,-45,-41,-18,-41,-28v32,-22,78,1,78,61v0,64,-145,132,-214,132v0,0,155,261,297,261v62,0,56,-44,56,-55v0,-9,16,-7,16,16v0,23,-8,89,-79,89v-159,0,-319,-306,-319,-306v0,0,-57,78,-57,113v0,14,9,20,-2,20v-12,0,-32,-19,-32,-52","w":225},"L":{"d":"4,-87v42,0,81,19,98,27v2,-4,16,-38,38,-83v-112,1,-124,-117,-61,-186v34,-37,101,-40,115,-38v14,2,18,6,14,10v-6,7,-16,-2,-16,-2v0,0,-41,0,-79,46v-66,78,-37,154,40,145v48,-94,117,-215,165,-215v13,0,12,30,11,44v-14,148,-136,194,-136,194r-53,106v60,37,125,88,180,115v69,34,122,34,138,6v8,-15,6,-35,15,-31v9,5,15,40,1,65v-19,33,-78,56,-167,12v-69,-34,-121,-95,-182,-140v0,0,-30,73,-131,73v-116,0,-118,-148,10,-148xm306,-352v-11,0,-102,174,-102,174v42,0,126,-174,102,-174xm-4,26v51,0,82,-36,94,-63v0,0,-39,-26,-89,-26v-124,0,-87,89,-5,89","w":229},"O":{"d":"271,-353v39,0,67,25,67,79v0,102,-130,286,-239,286v-44,0,-99,-26,-99,-120v0,-93,86,-194,122,-194v27,0,32,13,32,13v0,0,49,-64,117,-64xm101,-9v97,0,164,-146,164,-146v0,0,-19,6,-37,6v-73,0,-83,-94,-83,-94v0,0,-94,72,-94,150v0,51,18,84,50,84xm280,-181v0,0,56,-117,-9,-117v-56,0,-86,47,-86,70v0,33,18,61,46,61v28,0,49,-14,49,-14","w":265},"P":{"d":"146,-278v-1,-10,32,3,34,27v1,23,-42,83,-42,83v87,-16,129,-75,125,-117v-4,-42,-51,-57,-84,-57v-96,0,-193,85,-188,152v2,23,14,29,14,29v0,0,21,12,8,12v-26,0,-56,-22,-60,-75v-5,-82,129,-132,220,-132v58,0,135,18,141,87v5,69,-79,107,-79,107v-25,20,-125,33,-122,29v0,0,-72,93,-72,115v0,11,2,17,-6,17v-8,0,-20,-16,-20,-47v0,-55,133,-203,131,-230","w":183},"Q":{"d":"258,-293v-88,0,-229,111,-236,224v0,6,15,15,-27,15v-12,0,-27,-12,-27,-34v0,-123,162,-264,290,-264v42,0,72,27,72,85v0,68,-52,169,-120,237v84,42,180,123,259,162v80,40,138,40,152,7v8,-18,3,-41,14,-36v10,5,21,47,8,76v-17,40,-80,65,-183,14v-98,-49,-188,-153,-274,-202v-36,30,-74,49,-111,49v-12,0,-44,-4,-44,-18v0,-14,6,10,43,10v38,0,71,-19,101,-47v-86,-43,-148,-8,-150,7v-5,11,-2,32,-12,27v-10,-5,-8,-23,6,-55v13,-30,96,-37,177,-1v60,-71,96,-177,96,-216v0,-13,-3,-40,-34,-40","w":266},"R":{"d":"3,-190v0,37,20,25,19,40v-25,0,-52,-21,-52,-72v0,-80,136,-128,223,-128v56,0,129,16,129,84v0,67,-84,104,-84,104v-24,12,-62,24,-89,26v27,37,141,236,228,236v57,0,52,-29,52,-49v0,0,15,-5,15,21v0,26,-25,85,-85,85v-98,0,-221,-252,-243,-290v-10,13,-77,87,-77,107v0,7,2,27,-8,27v-11,0,-21,-13,-21,-53v0,-53,138,-189,138,-215v0,-10,37,3,37,26v0,23,-40,73,-40,73v85,-16,130,-74,130,-114v0,-40,-45,-55,-77,-55v-93,0,-195,82,-195,147","w":234},"T":{"d":"-72,-164v-49,1,-91,-55,-85,-105v6,-57,47,-113,118,-113v78,0,226,125,303,125v26,0,62,-20,62,-43v0,-19,-36,-33,-13,-33v24,0,32,29,32,50v0,75,-126,78,-180,44v0,0,-133,235,-133,285v0,19,-31,-17,-31,-52v-1,-51,124,-255,120,-254v-5,-4,-106,-87,-172,-87v-72,0,-109,84,-67,131v31,36,104,27,108,-24v0,-11,-4,-28,-12,-28v-12,0,-21,9,-21,-1v0,-12,10,-16,21,-16v30,0,33,30,33,41v0,33,-21,80,-83,80","w":106},"U":{"d":"199,-181v12,-19,35,-55,43,-75v3,-8,0,-18,10,-18v10,0,29,16,26,48v-21,57,-122,199,-102,199v22,0,76,-52,108,-100v5,-8,17,-5,9,7v-8,12,-83,118,-119,118v-5,0,-34,-13,-34,-30v0,-51,31,-104,31,-104v-8,12,-107,134,-139,134v-27,0,-32,-30,-32,-49v0,-26,133,-237,133,-264v0,-13,-14,-25,-35,-25v-50,0,-170,86,-162,174v3,38,27,41,36,41v33,0,22,-25,34,-25v12,0,14,37,-39,37v-53,0,-73,-38,-75,-64v-7,-78,100,-174,208,-174v49,0,59,43,61,62v4,50,-121,235,-104,235v10,0,142,-127,142,-127","w":232},"V":{"d":"176,-313v23,0,79,29,79,96v0,67,-239,232,-244,232v-5,0,-30,-5,-30,-47v0,-27,110,-238,110,-265v0,-17,-23,-38,-57,-38v-114,0,-221,119,-210,198v5,37,40,46,59,46v40,0,67,-45,67,-20v0,23,-43,33,-58,33v-46,0,-105,-32,-114,-92v-11,-80,109,-180,251,-180v37,0,89,18,94,66v8,69,-85,190,-95,262v40,-35,179,-133,179,-214v0,-40,-20,-65,-33,-65v-14,0,-21,-12,2,-12","w":188},"W":{"d":"-89,-91v46,0,71,-43,71,-20v0,23,-50,33,-64,33v-47,0,-101,-31,-101,-92v0,-80,134,-181,277,-181v36,0,86,18,86,66v0,63,-143,232,-143,248v19,-15,156,-167,156,-167v0,-26,38,13,38,34v0,21,-58,109,-58,149v40,-35,126,-135,126,-216v0,-40,-21,-65,-35,-65v-13,0,-20,-12,3,-12v23,0,79,29,79,96v0,68,-185,234,-190,234v-5,0,-31,-6,-31,-48v0,-42,57,-134,57,-134v-90,88,-152,172,-152,172v0,19,-44,7,-44,-27v0,-52,163,-222,163,-277v0,-18,-18,-38,-52,-38v-115,0,-239,119,-239,199v0,37,34,46,53,46","w":287},"X":{"d":"167,-159v2,85,5,148,54,130v12,10,-18,29,-33,29v-75,0,-74,-92,-74,-128v-55,38,-129,90,-129,127v0,28,-36,2,-36,-48v0,-36,101,-92,172,-129v0,-42,-1,-115,-1,-115v0,-22,-16,-21,-16,-35v45,-16,60,41,61,128v76,-35,179,-84,179,-111v0,-12,-15,-27,11,-27v6,0,7,16,2,31v-14,39,-110,97,-190,148","w":224},"Y":{"d":"274,-187r-156,296v-28,48,-63,88,-100,98v-17,5,-40,-4,-48,-31v-8,-28,133,-143,133,-143v32,-46,89,-168,89,-168v-9,13,-119,134,-156,134v-31,0,-36,-33,-36,-55v0,-37,130,-221,130,-262v0,-14,-16,-27,-39,-27v-55,0,-182,92,-174,187v4,41,29,45,39,45v36,0,24,-28,37,-28v13,0,14,40,-43,40v-57,0,-78,-42,-80,-69v-8,-85,108,-181,224,-181v52,0,63,40,65,60v5,54,-121,246,-108,246v14,0,152,-116,152,-116v15,-29,46,-90,46,-104v0,-11,38,2,38,41v0,7,-4,20,-13,37xm-1,183v42,-12,94,-125,94,-125v0,0,-115,102,-111,117v2,8,9,11,17,8","w":225},"Z":{"d":"285,90v103,0,112,-64,112,-44v0,21,-25,98,-142,98v-106,0,-130,-156,-216,-156v-19,0,-39,12,-39,-9v0,-94,336,-233,336,-246v-5,-1,-178,8,-194,-6v-32,-19,-49,-89,-29,-77v16,56,169,29,219,29v45,0,47,28,47,42v0,39,-336,196,-336,244v79,0,132,125,242,125","w":217},"4":{"d":"29,-64v-12,-5,-27,-29,-14,-39v78,-57,141,-123,177,-150v21,0,37,24,38,28v-9,29,-45,72,-74,126v22,-2,43,-6,43,-13v0,0,6,-9,6,3v5,17,-25,39,-62,33v-15,31,-25,51,-24,74v-14,9,-29,-16,-29,-27v0,-27,8,-40,10,-44v-51,4,-42,6,-71,9xm114,-98v6,-11,53,-93,62,-110v-15,14,-63,69,-123,110r61,0","w":204,"k":{"7":-7}},"5":{"d":"220,-256v13,10,-3,42,-18,46v-12,3,-45,-3,-80,-6r-37,59v49,-14,96,-9,104,39v9,67,-77,119,-132,119v-34,0,-60,-19,-64,-47v-3,-5,9,-41,16,-21v0,32,43,40,71,28v38,-16,83,-66,79,-99v-1,-9,-10,-10,-23,-10v-27,0,-48,12,-68,16v-15,-7,-22,-18,-23,-27v0,-7,33,-60,55,-89v40,8,94,8,120,-8","w":211,"k":{"4":20}},"0":{"d":"212,-187v10,49,-66,184,-131,187v-78,-12,-85,-82,-46,-150v35,-61,84,-101,105,-101v28,0,25,40,19,34v-50,0,-125,126,-120,176v2,15,8,23,21,23v34,0,73,-65,85,-84v23,-39,35,-74,31,-96v-1,-8,33,-7,36,11","w":199},"1":{"d":"132,-253v22,10,30,22,7,51v-32,41,-110,160,-110,201v0,6,-28,-5,-29,-29v10,-44,69,-132,92,-169v-14,2,-25,-2,-33,-8v-12,-8,-7,-15,2,-14v14,2,38,2,59,-19v5,-8,10,-13,12,-13","w":109},"2":{"d":"46,-190v9,-39,65,-63,111,-63v27,0,62,28,62,56v1,35,-56,108,-149,155v39,-1,129,3,133,-31v14,-10,6,42,-17,56v-23,14,-134,17,-161,17v-10,0,-23,-18,-24,-28v-1,-10,7,-17,31,-30v51,-28,160,-114,165,-163v-1,-4,-6,-7,-18,-7v-68,0,-113,50,-113,60v0,10,-20,-9,-20,-22","w":214},"3":{"d":"120,-129v49,3,73,4,73,42v0,56,-85,85,-138,87v-41,1,-70,-29,-45,-57v8,-4,10,4,7,11v1,8,14,14,27,14v41,0,106,-29,120,-68v-11,-30,-87,2,-95,-31v0,-4,-1,-5,22,-16v27,-13,90,-41,94,-60v1,-6,0,-12,-17,-12v-53,0,-77,28,-79,38v-2,10,-19,-9,-15,-22v12,-33,57,-50,101,-49v21,0,38,20,35,52v-3,31,-84,69,-90,71","w":205},"6":{"d":"171,-252v52,0,30,37,24,37v-8,-16,-35,-10,-52,0v-22,14,-44,32,-57,47v32,-21,80,3,83,39v5,55,-38,129,-105,129v-27,0,-61,-25,-61,-57v0,-84,72,-195,168,-195xm50,-22v37,2,96,-81,89,-116v-2,-13,-7,-18,-19,-18v-40,-1,-97,81,-89,119v1,8,9,15,19,15","w":178},"7":{"d":"186,-193v-50,45,-128,126,-150,192v-2,6,-27,-5,-25,-29v37,-73,47,-81,146,-180v-24,3,-84,13,-100,3v-26,-15,-23,-77,-9,-42v33,38,160,-30,159,28v0,10,-13,21,-21,28","w":156,"k":{"8":-5}},"8":{"d":"201,-208v0,33,-28,55,-49,65v23,24,26,61,2,91v-25,31,-69,53,-95,53v-27,0,-59,-33,-59,-59v0,-39,42,-76,72,-90v-44,-48,35,-105,80,-105v22,0,49,22,49,45xm41,-32v38,2,103,-30,110,-79v-1,-12,-6,-18,-16,-19v-31,-4,-110,41,-110,85v0,10,6,12,16,13xm97,-158v36,-1,80,-30,80,-58v-1,-6,-5,-10,-13,-10v-34,1,-76,23,-80,60v1,5,6,8,13,8","w":187},"9":{"d":"35,0v-52,0,-29,-37,-23,-37v8,15,35,10,51,0v22,-13,44,-34,57,-48v-32,20,-78,-2,-83,-38v-10,-65,83,-175,148,-111v61,60,-27,168,-79,207v-16,11,-42,26,-71,27xm86,-96v40,2,98,-81,89,-119v-1,-8,-9,-16,-19,-16v-37,-2,-97,81,-89,117v3,12,7,18,19,18","w":190,"k":{"3":16}},"\u00ff":{"d":"114,-225v-8,36,-46,23,-46,0v0,-14,11,-20,22,-20v12,0,24,6,24,20xm178,-225v-8,36,-46,23,-46,0v0,-14,11,-20,22,-20v12,0,24,6,24,20xm217,-128v5,-8,17,-5,9,7v-7,12,-83,104,-120,118v-23,37,-53,73,-82,99v-26,24,-48,40,-76,40v-14,0,-32,-11,-34,-35v-2,-23,129,-82,129,-82v4,-5,10,-13,16,-23v-20,12,-43,-5,-47,-35v-3,-26,57,-104,54,-138v-1,-9,28,5,31,34v3,29,-69,128,-47,128v25,0,97,-124,93,-165v-1,-7,24,10,27,38v1,19,-17,64,-48,115v23,-16,69,-62,95,-101xm-64,113v35,0,94,-77,94,-77v0,0,-108,54,-107,67v1,6,7,10,13,10","w":168},"!":{"d":"24,-39v12,0,26,7,26,22v0,22,-23,21,-24,21v-12,0,-25,-7,-25,-21v0,-14,11,-22,23,-22xm150,-295v0,-10,27,5,27,30v0,20,-108,158,-108,197v0,9,-34,-1,-34,-24v0,-12,115,-184,115,-203","w":144},"\"":{"d":"69,-248v0,-10,30,4,30,11v0,10,-39,39,-47,39v-16,0,17,-36,17,-50xm122,-248v0,-10,31,4,31,11v0,10,-40,39,-48,39v-15,0,17,-36,17,-50"},"#":{"d":"166,-84v25,3,67,-4,74,9v0,5,-40,7,-84,7v-17,29,-31,55,-31,67v0,5,-24,-4,-24,-23v0,-4,10,-21,24,-44r-44,0v-17,29,-31,55,-31,67v0,5,-24,-4,-24,-23v0,-4,11,-21,25,-44v-25,5,-47,-24,-36,-25v1,0,22,2,49,3v5,-8,11,-17,16,-26r-38,0v-22,0,-36,-24,-27,-24v2,0,36,2,77,4v17,-28,31,-53,31,-59v0,-8,25,5,25,13v0,6,-11,24,-26,48v14,1,29,1,43,2v18,-30,33,-57,33,-63v0,-8,25,5,25,13v0,6,-12,26,-28,51v14,-1,47,0,45,8v0,4,-23,6,-54,7xm136,-86v6,-10,13,-20,19,-30r-44,0r-18,28v14,1,28,1,43,2","w":251},"$":{"d":"171,-149v42,11,83,30,76,71v-5,35,-86,82,-161,73v-10,21,-18,38,-18,50v-8,0,-32,-15,-32,-39v0,-2,4,-9,10,-21v-32,-16,-47,-43,-44,-61v5,-24,94,-59,108,-44v4,-5,7,-12,11,-17v-37,-7,-73,-20,-66,-55v7,-36,80,-64,132,-58v13,-21,17,-37,20,-42v28,8,48,24,19,53v9,5,13,9,13,12v0,5,-14,17,-14,12v0,-3,-2,-5,-8,-6v-12,22,-31,48,-46,72xm82,-175v-2,8,21,12,50,18v16,-24,29,-46,39,-64v-37,5,-85,22,-89,46xm59,-37v14,-22,30,-49,45,-75v-25,-13,-135,61,-45,75xm215,-104v3,-17,-23,-23,-55,-27r-56,90v47,-9,106,-32,111,-63","w":254},"%":{"d":"52,-22v0,-43,147,-241,138,-252v7,0,26,13,26,33v-19,44,-142,212,-140,250v-7,-1,-24,-12,-24,-31xm100,-224v2,-10,20,-7,22,4v5,25,-32,88,-63,90v-38,-6,-44,-40,-24,-74v16,-27,39,-48,51,-48v11,-4,20,21,8,22v-18,1,-53,52,-49,74v1,8,3,8,6,8v14,4,53,-57,49,-76xm204,-95v3,-9,21,-5,22,4v6,26,-32,88,-63,90v-38,-6,-43,-40,-24,-74v16,-28,39,-48,51,-48v11,-3,20,21,9,22v-20,2,-54,52,-50,74v1,7,4,8,7,8v16,3,53,-57,48,-76","w":212},"&":{"d":"139,-108v24,9,73,-18,82,11v-5,12,-30,11,-44,15v-4,14,-13,31,-27,47v22,30,48,13,60,3v5,0,6,4,8,6v-3,5,-8,24,-42,26v-16,0,-31,-7,-45,-18v-22,28,-86,38,-100,0v-20,-53,30,-87,65,-111v0,-44,33,-114,78,-114v26,0,35,23,39,41v5,25,-64,74,-85,84v1,21,4,42,7,52v3,-4,8,-9,11,-14v-6,-7,-22,-25,-7,-28xm131,-149v17,-11,56,-44,57,-61v-30,6,-47,39,-57,61xm114,-46v-3,-8,-11,-28,-14,-45v-21,15,-46,41,-48,58v-2,13,3,12,11,14v12,0,29,-9,51,-27","w":267},"'":{"d":"103,-239v-16,0,17,-36,17,-50v0,-10,31,4,31,11v0,10,-40,39,-48,39","w":126},"(":{"d":"247,-324v21,0,41,33,20,33v-22,0,-179,114,-179,244v0,45,14,71,3,71v-15,0,-31,-29,-31,-83v0,-126,136,-265,187,-265","w":176},")":{"d":"146,-219v0,-87,-54,-105,0,-105v23,0,38,49,38,108v0,111,-94,240,-160,240v-3,0,-12,0,-12,-6v0,-6,134,-60,134,-237","w":173},"*":{"d":"120,-302v27,16,34,15,5,65v21,2,51,-10,61,7v1,3,-2,3,-6,4r-52,8v23,28,25,33,26,39v0,15,-12,18,-19,24v-7,-15,-17,-34,-29,-49v-13,22,-22,43,-33,54v-7,1,-9,-12,-6,-17r19,-45r-23,0v-29,-1,-36,-24,-31,-34v11,5,38,10,52,9v-10,-16,-25,-27,-31,-47v-1,-5,1,-9,5,-10v13,10,26,27,43,46v9,-17,14,-36,19,-54","w":152},"+":{"d":"116,-126v0,0,23,-52,23,-63v0,-27,32,-4,32,9v0,12,-22,54,-22,54v9,2,75,-13,73,9v0,6,-88,17,-88,17v-4,-3,-56,121,-56,63v0,-11,25,-60,25,-60v0,0,-22,2,-44,2v-21,0,-24,-27,-24,-35v0,-8,15,4,81,4","w":249},",":{"d":"3,74v-18,0,19,-53,19,-73v0,-14,34,5,34,16v0,14,-44,57,-53,57","w":104},".":{"d":"44,0v-12,0,-24,-7,-24,-21v0,-28,47,-29,47,0v0,21,-22,21,-23,21","w":108},"\/":{"d":"177,-230v0,27,-144,215,-144,267v0,8,-33,-5,-33,-37v0,-17,152,-249,152,-275v0,-14,25,12,25,45","w":156},":":{"d":"0,-41v0,-28,47,-29,47,0v0,21,-22,21,-23,21v-12,0,-24,-7,-24,-21xm38,-108v0,-27,47,-27,47,0v-8,37,-44,24,-47,0","w":86},";":{"d":"44,-72v12,0,25,6,25,21v-8,36,-47,23,-47,0v0,-14,11,-21,22,-21xm6,-1v0,-14,34,5,34,16v0,14,-44,57,-53,57v-18,0,19,-53,19,-73","w":77},"=":{"d":"205,-73v12,0,16,7,16,11v1,15,-127,18,-143,18v-16,0,-27,-35,-20,-35v3,0,100,9,147,6xm236,-155v12,-1,16,6,17,10v0,15,-128,18,-143,18v-16,0,-28,-35,-22,-35v3,0,101,10,148,7","w":285},"?":{"d":"191,-298v51,0,69,43,65,76v-6,48,-157,89,-162,127v-2,13,6,15,5,22v-1,8,-38,2,-34,-30v9,-69,155,-87,163,-145v7,-50,-155,15,-159,46v-3,25,-26,-7,-24,-22v3,-43,94,-74,146,-74xm73,-39v12,0,25,7,25,22v0,22,-22,21,-23,21v-12,0,-25,-7,-25,-21v0,-14,11,-22,23,-22","w":299},"@":{"d":"213,-222v58,0,103,30,103,86v0,72,-66,124,-117,124v-22,0,-32,-28,-21,-42v0,0,-32,32,-44,32v-12,0,-31,-13,-31,-33v0,-32,81,-105,118,-105v19,0,33,29,25,29v-39,0,-127,95,-103,95v7,0,76,-64,73,-69v-3,-5,23,-2,23,19v0,21,-41,59,-29,59v18,0,94,-49,82,-126v-5,-32,-31,-51,-66,-51v-88,0,-178,90,-165,169v10,59,83,65,83,65v32,4,59,-14,85,-22v-6,24,-56,29,-82,31v-12,0,-97,-5,-111,-89v-5,-30,5,-59,22,-85v25,-39,88,-87,155,-87","w":278},"`":{"d":"69,-173v-9,0,-53,-43,-53,-57v0,-11,34,-30,34,-16v0,20,37,73,19,73","w":104},"\\":{"d":"0,-230v0,-33,26,-59,26,-45v0,26,151,258,151,275v0,32,-32,45,-32,37v0,-52,-145,-240,-145,-267","w":156},"^":{"d":"66,-238v21,-13,24,35,41,32v-8,6,-32,7,-41,-13v-26,18,-25,19,-40,8v1,-3,20,-15,40,-27","w":133},">":{"d":"141,-114r-55,-45v-12,-9,-7,-20,5,-19v7,1,22,14,55,45v12,11,38,30,10,43v-28,13,-84,41,-99,60v-4,6,-9,2,-12,-3v-15,-49,63,-55,96,-81","w":192},"<":{"d":"149,-181v12,0,10,15,-6,22v-12,4,-60,33,-76,45v27,20,103,42,68,74v0,3,-13,10,-15,2v-4,-15,-52,-45,-69,-57v-26,-18,12,-34,25,-43v42,-28,64,-42,73,-43","w":178},"[":{"d":"0,8v15,-44,178,-293,174,-317v3,0,93,8,135,6v11,0,14,5,14,9v1,12,-86,15,-119,16v-32,69,-141,228,-165,295v30,2,80,5,108,3v11,0,15,6,15,10v-5,13,-122,20,-138,14v-10,-4,-24,-16,-24,-36","w":176},"]":{"d":"97,42v0,2,1,5,-2,4v-3,0,-91,-7,-135,-5v-10,0,-15,-7,-15,-10v0,-13,87,-15,120,-16v33,-70,144,-229,168,-297v-31,-3,-81,-7,-110,-5v-11,1,-15,-5,-15,-9v0,-14,117,-16,133,-16v16,5,29,15,31,38v-14,41,-179,299,-175,316","w":173},"_":{"d":"258,5v14,0,19,8,19,11v1,15,-223,18,-241,18v-19,0,-32,-34,-24,-34v3,0,190,5,246,5","w":299},"|":{"d":"100,-261v11,23,-17,260,5,305v4,7,-25,12,-38,-16v-7,-15,6,-293,-4,-316v-6,-12,24,-2,37,27","w":156},"{":{"d":"212,-303v-33,0,-74,147,-108,147v0,0,10,2,7,20v-5,30,-76,122,-57,159v-1,8,-39,-6,-35,-33v4,-28,51,-102,55,-126v3,-23,-11,-30,7,-30v18,0,73,-155,105,-155v33,0,31,19,26,18","w":146},"}":{"d":"169,-314v1,-8,54,-7,50,28v-5,45,-77,119,-54,155v-1,7,-15,-1,-23,15v-9,17,-60,143,-96,143v-36,0,-37,-7,-36,-13v1,-6,25,6,37,-18v12,-24,58,-133,82,-133v0,0,-9,-7,-7,-19v2,-12,60,-116,62,-133v3,-17,-16,-16,-15,-25","w":146},"~":{"d":"164,-232v14,0,27,9,34,19v-5,9,-9,-5,-20,-5v-17,0,-34,15,-49,15v-15,1,-35,-14,-26,-22v15,14,42,-7,61,-7","w":172},"\u20ac":{"d":"212,-253v25,0,47,25,50,49v-18,18,-40,36,-65,46v-17,-11,30,-44,34,-59v-44,-7,-92,35,-121,63v19,-5,55,7,33,18v-14,7,-29,6,-54,7v-5,6,-8,13,-12,19v21,-2,72,1,46,20v-16,4,-32,5,-57,7v-8,36,-5,63,41,63v42,0,94,-28,95,-76v0,-9,5,-8,13,-8v5,1,13,12,11,18v-6,48,-63,90,-117,90v-51,0,-80,-30,-77,-85v-23,5,-33,-11,-36,-27v3,-14,22,-1,41,-4v1,-5,3,-9,6,-14v-18,5,-36,-24,-23,-33r40,2v29,-44,91,-96,152,-96","w":237},"\u00ab":{"d":"149,-181v12,0,10,15,-6,22v-12,4,-60,33,-76,45v27,20,103,42,68,74v0,3,-13,10,-15,2v-4,-15,-52,-45,-69,-57v-26,-18,12,-34,25,-43v42,-28,64,-42,73,-43xm239,-181v12,0,10,15,-6,22v-12,4,-60,33,-76,45v27,20,103,42,68,74v0,3,-13,10,-15,2v-4,-15,-52,-45,-69,-57v-26,-18,12,-34,25,-43v42,-28,64,-42,73,-43","w":272},"\u00bb":{"d":"141,-114r-55,-45v-12,-9,-7,-20,5,-19v7,1,22,14,55,45v12,11,38,30,10,43v-28,13,-84,41,-99,60v-4,6,-9,2,-12,-3v-15,-49,63,-55,96,-81xm244,-114r-55,-45v-12,-9,-7,-20,5,-19v7,1,22,14,55,45v13,11,38,30,9,43v-28,13,-83,41,-98,60v-4,6,-9,2,-13,-3v-13,-49,63,-56,97,-81","w":293},"\u201c":{"d":"69,-248v0,-10,30,4,30,11v0,10,-39,39,-47,39v-16,0,17,-36,17,-50xm122,-248v0,-10,31,4,31,11v0,10,-40,39,-48,39v-15,0,17,-36,17,-50"},"\u201d":{"d":"134,-202v0,10,-31,-4,-31,-11v0,-10,39,-40,47,-40v16,0,-16,37,-16,51xm80,-202v0,10,-30,-4,-30,-11v0,-10,40,-40,48,-40v15,0,-18,37,-18,51"},"\u2022":{"d":"53,-64v-16,0,-33,-10,-33,-29v1,-38,64,-37,65,0v0,29,-30,29,-32,29","w":80},"\u02dc":{"d":"164,-232v14,0,27,9,34,19v-5,9,-9,-5,-20,-5v-17,0,-34,15,-49,15v-15,1,-35,-14,-26,-22v15,14,42,-7,61,-7","w":172},"\u2018":{"d":"69,-248v0,-10,30,4,30,11v0,10,-39,39,-47,39v-16,0,17,-36,17,-50","w":126},"\u2019":{"d":"80,-202v0,10,-30,-4,-30,-11v0,-10,40,-40,48,-40v15,0,-18,37,-18,51","w":125},"\u2030":{"d":"52,-22v0,-43,147,-241,138,-252v7,0,26,13,26,33v-19,44,-142,212,-140,250v-7,-1,-24,-12,-24,-31xm100,-224v2,-10,20,-7,22,4v5,25,-32,88,-63,90v-38,-6,-44,-40,-24,-74v16,-27,39,-48,51,-48v11,-4,20,21,8,22v-18,1,-53,52,-49,74v1,8,3,8,6,8v14,4,53,-57,49,-76xm204,-95v3,-9,21,-5,22,4v6,26,-32,88,-63,90v-38,-6,-43,-40,-24,-74v16,-28,39,-48,51,-48v11,-3,20,21,9,22v-20,2,-54,52,-50,74v1,7,4,8,7,8v16,3,53,-57,48,-76xm310,-95v3,-9,22,-5,23,4v6,25,-33,87,-63,90v-39,-6,-44,-40,-24,-74v16,-27,39,-48,51,-48v11,-2,19,21,8,22v-20,2,-53,53,-50,74v1,7,4,8,7,8v16,3,53,-57,48,-76","w":320},"\u02c6":{"d":"66,-238v21,-13,24,35,41,32v-8,6,-32,7,-41,-13v-26,18,-25,19,-40,8v1,-3,20,-15,40,-27","w":133},"\u2039":{"d":"149,-181v12,0,10,15,-6,22v-12,4,-60,33,-76,45v27,20,103,42,68,74v0,3,-13,10,-15,2v-4,-15,-52,-45,-69,-57v-26,-18,12,-34,25,-43v42,-28,64,-42,73,-43","w":178},"\u203a":{"d":"141,-114r-55,-45v-12,-9,-7,-20,5,-19v7,1,22,14,55,45v12,11,38,30,10,43v-28,13,-84,41,-99,60v-4,6,-9,2,-12,-3v-15,-49,63,-55,96,-81","w":192},"\u201e":{"d":"134,-18v0,10,-31,-5,-31,-12v0,-10,39,-39,47,-39v16,0,-16,37,-16,51xm80,-18v0,10,-30,-5,-30,-12v0,-10,40,-39,48,-39v15,0,-18,37,-18,51"},"\u2026":{"d":"44,0v-12,0,-24,-7,-24,-21v0,-28,47,-29,47,0v0,21,-22,21,-23,21xm114,0v-12,0,-24,-7,-24,-21v0,-28,47,-28,48,0v0,21,-23,21,-24,21xm186,0v-12,0,-24,-7,-24,-21v0,-14,11,-21,22,-21v12,0,25,6,25,21v0,21,-22,21,-23,21","w":229},"\u201a":{"d":"103,-239v-16,0,17,-36,17,-50v0,-10,31,4,31,11v0,10,-40,39,-48,39","w":126},"\u0152":{"d":"483,-354v59,0,73,35,73,45v0,10,-10,9,-10,5v0,0,-13,-25,-64,-25v-48,0,-69,45,-69,62v0,57,42,53,42,59v0,6,2,15,-39,15v-90,0,-141,52,-141,111v0,48,25,76,67,76v48,-10,31,8,32,-27v0,-17,17,-27,17,-27v-4,12,4,35,4,35v0,0,20,-8,20,-29v0,-21,-16,-17,-16,-17v10,-17,42,-14,42,21v0,19,-20,36,-35,47v26,41,69,66,101,59v16,-3,19,-12,19,-12v-6,-7,3,-25,7,-7v4,18,-8,40,-44,48v-39,8,-78,-31,-102,-77v-51,15,-144,12,-167,-56v-38,36,-81,61,-121,61v-44,0,-98,-27,-98,-120v0,-94,86,-196,122,-196v28,0,32,14,32,14v0,0,49,-65,117,-65v66,0,83,90,52,151v26,-8,50,-12,65,-12v0,0,-22,-21,-22,-56v0,-43,56,-83,116,-83xm272,-298v-57,0,-87,46,-87,69v0,45,31,74,74,58v8,-6,16,-10,25,-15v10,-23,44,-112,-12,-112xm102,-8v45,0,83,-31,112,-65v-4,-31,5,-55,21,-75v-75,7,-91,-93,-89,-94v0,0,-94,72,-94,150v0,51,18,84,50,84","w":447},"\u2014":{"d":"319,-105v14,0,19,8,19,11v1,15,-222,18,-240,18v-19,0,-33,-34,-25,-34v3,0,190,5,246,5","w":338},"\u2013":{"d":"222,-105v14,0,20,8,20,11v1,15,-126,18,-144,18v-19,0,-33,-34,-25,-34v3,0,93,5,149,5","w":247},"\u2122":{"d":"181,-255v22,2,20,31,23,50v13,-13,48,-44,56,-50v10,1,18,7,15,19v-19,23,-39,61,-58,88v-3,1,-5,2,-8,2v10,-31,20,-55,35,-81v-12,5,-31,27,-43,26v-8,-4,-7,-17,-13,-24r-50,77v-3,1,-5,2,-8,2v13,-42,31,-74,51,-109xm176,-253v-6,15,-29,10,-46,14v-16,25,-40,53,-53,84v-3,5,-8,9,-15,9v10,-33,22,-59,38,-87v-9,2,-18,4,-28,7v-10,-2,-12,-13,-8,-24v37,-4,71,-9,112,-3","w":274},"\u0153":{"d":"123,-39v-19,20,-41,39,-66,39v-14,0,-39,-7,-39,-45v0,-80,102,-183,152,-106v2,3,-1,8,-18,8v-60,0,-120,128,-89,128v22,0,60,-43,60,-43v-9,-14,5,-61,23,-50v27,-39,71,-70,87,-70v9,0,25,5,25,39v0,34,-76,93,-95,93v0,0,-14,24,5,24v24,0,89,-56,121,-104v5,-8,16,-4,8,8v-8,12,-94,118,-140,118v0,0,-31,0,-34,-39xm229,-135v-12,0,-60,76,-60,76v49,-29,72,-76,60,-76","w":238,"k":{"a":-2,"z":-3,"x":-2,"e":-1}},"\u00a1":{"d":"154,-246v-12,0,-25,-6,-25,-21v0,-22,22,-22,23,-22v12,0,25,8,25,22v0,14,-11,21,-23,21xm28,10v0,10,-27,-5,-27,-30v0,-20,108,-158,108,-197v0,-9,35,1,35,24v0,12,-116,184,-116,203","w":144},"\u0178":{"d":"274,-187r-156,296v-28,48,-63,88,-100,98v-17,5,-40,-4,-48,-31v-8,-28,133,-143,133,-143v32,-46,89,-168,89,-168v-9,13,-119,134,-156,134v-31,0,-36,-33,-36,-55v0,-37,130,-221,130,-262v0,-14,-16,-27,-39,-27v-55,0,-182,92,-174,187v4,41,29,45,39,45v36,0,24,-28,37,-28v13,0,14,40,-43,40v-57,0,-78,-42,-80,-69v-8,-85,108,-181,224,-181v52,0,63,40,65,60v5,54,-121,246,-108,246v14,0,152,-116,152,-116v15,-29,46,-90,46,-104v0,-11,38,2,38,41v0,7,-4,20,-13,37xm-1,183v42,-12,94,-125,94,-125v0,0,-115,102,-111,117v2,8,9,11,17,8","w":225},"\u00a2":{"d":"18,-60v0,-40,86,-171,116,-97v18,-31,31,-56,31,-63v0,-12,20,7,20,18v0,16,-64,111,-104,183v10,-1,24,-8,52,-50v5,-8,16,-5,8,7v-7,11,-39,57,-70,62v-12,24,-20,43,-20,55v0,7,-19,-5,-19,-33v0,-3,4,-12,12,-26v-19,-9,-26,-31,-26,-56xm59,-30r50,-84v-3,-9,-4,-16,-4,-16v0,0,-48,43,-48,89v0,4,1,8,2,11","w":132},"\u00a8":{"d":"59,-275v-12,0,-24,-7,-24,-21v0,-27,47,-27,47,0v0,21,-22,21,-23,21xm143,-275v-12,0,-24,-7,-24,-21v0,-27,47,-27,47,0v0,21,-22,21,-23,21","w":196},"\u00a9":{"d":"172,-148v-27,9,-73,47,-68,77v11,25,56,-11,62,-10v-2,5,-28,35,-48,35v-18,0,-35,-19,-37,-33v-3,-37,72,-121,108,-70v-2,9,-14,0,-17,1xm238,-139v9,62,-58,140,-119,140v-42,0,-83,-34,-89,-82v-10,-78,78,-143,143,-143v27,0,22,27,12,27v-66,0,-143,62,-133,133v4,31,31,46,56,46v58,0,123,-71,114,-130v-2,-17,12,-18,16,9","w":268},"\u00ae":{"d":"239,-139v9,63,-58,140,-120,140v-42,0,-83,-34,-89,-82v-10,-78,78,-144,144,-144v27,0,21,28,11,28v-66,0,-143,62,-133,133v4,31,31,46,57,46v58,0,122,-72,113,-131v-2,-17,13,-17,17,10xm167,-68v-10,31,-40,4,-48,-15v-7,10,-5,20,-5,20v0,3,0,4,5,4v1,5,-2,6,-6,6v-11,0,-17,-6,-17,-15v0,-8,13,-32,42,-55v10,-9,8,5,7,6v-21,19,-19,28,-17,31v1,0,23,30,35,18v2,-2,5,-1,4,0xm201,-129v0,22,-37,34,-65,36v-2,0,-4,0,0,-2v14,-5,49,-21,49,-37v-8,-27,-51,-12,-70,-2v-19,10,-10,-4,-4,-8v15,-23,90,-34,90,13","w":268},"\u2212":{"d":"222,-105v14,0,20,8,20,11v1,15,-126,18,-144,18v-19,0,-33,-34,-25,-34v3,0,93,5,149,5","w":247},"\u00bf":{"d":"105,1v-51,0,-69,-44,-65,-77v6,-48,158,-88,163,-126v2,-13,-6,-15,-5,-22v1,-8,37,-3,33,29v-9,69,-154,88,-162,146v-7,50,155,-16,159,-47v3,-25,26,7,24,22v-5,43,-93,75,-147,75xm224,-259v-12,0,-26,-6,-26,-21v0,-22,23,-22,24,-22v12,0,25,8,25,22v0,14,-11,21,-23,21","w":299},"\u00e7":{"d":"78,30v-14,-4,-42,12,-44,-9v0,-4,6,-16,12,-25v-75,-39,18,-165,61,-176v11,0,15,13,15,13v0,-3,15,-14,15,-21v0,-6,16,3,16,32v0,41,-24,29,-24,66v-26,0,-24,-39,-24,-39v0,0,-48,43,-48,89v0,17,11,21,20,21v11,0,75,-60,107,-109v5,-8,18,-3,9,8v-9,12,-94,125,-130,119r-8,14v31,-12,49,23,29,46v-16,18,-58,29,-66,1v-1,-5,1,-16,10,-13v-2,8,4,12,9,12v21,1,42,-15,41,-29","w":132},"\u00c0":{"d":"305,69v0,-15,13,-12,13,0v0,12,-14,31,-60,31v-94,0,-115,-98,-115,-157v0,-59,25,-106,25,-106v-26,2,-45,10,-68,14v-27,29,-123,125,-203,125v-63,0,-99,-51,-99,-112v0,-101,131,-174,223,-174v56,0,73,58,73,72v0,14,-11,6,-11,6v0,0,-10,-35,-76,-35v-103,0,-195,81,-195,132v0,0,-1,72,73,72v56,0,130,-51,162,-75v-18,4,-33,7,-44,8v-61,8,-81,-34,-84,-54v-3,-20,9,-7,9,-7v7,25,136,23,173,9v0,0,120,-117,120,-139v0,-11,45,16,45,52v0,7,-21,48,-33,70r59,-12v4,-1,5,2,5,6v0,6,-8,10,-30,16v0,0,-18,6,-45,12v-9,12,-43,79,-43,145v0,96,46,127,84,127v17,0,42,-11,42,-26xm135,-185r45,-7v12,-26,58,-101,58,-101xm264,-340v-9,0,-53,-43,-53,-57v0,-11,34,-30,34,-16v0,20,37,73,19,73","w":217},"\u00c1":{"d":"305,69v0,-15,13,-12,13,0v0,12,-14,31,-60,31v-94,0,-115,-98,-115,-157v0,-59,25,-106,25,-106v-26,2,-45,10,-68,14v-27,29,-123,125,-203,125v-63,0,-99,-51,-99,-112v0,-101,131,-174,223,-174v56,0,73,58,73,72v0,14,-11,6,-11,6v0,0,-10,-35,-76,-35v-103,0,-195,81,-195,132v0,0,-1,72,73,72v56,0,130,-51,162,-75v-18,4,-33,7,-44,8v-61,8,-81,-34,-84,-54v-3,-20,9,-7,9,-7v7,25,136,23,173,9v0,0,120,-117,120,-139v0,-11,45,16,45,52v0,7,-21,48,-33,70r59,-12v4,-1,5,2,5,6v0,6,-8,10,-30,16v0,0,-18,6,-45,12v-9,12,-43,79,-43,145v0,96,46,127,84,127v17,0,42,-11,42,-26xm135,-185r45,-7v12,-26,58,-101,58,-101xm268,-330v-18,0,19,-54,19,-74v0,-14,34,5,34,16v0,14,-44,58,-53,58","w":217},"\u00b4":{"d":"33,-173v-18,0,20,-53,20,-73v0,-14,34,5,34,16v0,14,-45,57,-54,57","w":104},"\u00c2":{"d":"305,69v0,-15,13,-12,13,0v0,12,-14,31,-60,31v-94,0,-115,-98,-115,-157v0,-59,25,-106,25,-106v-26,2,-45,10,-68,14v-27,29,-123,125,-203,125v-63,0,-99,-51,-99,-112v0,-101,131,-174,223,-174v56,0,73,58,73,72v0,14,-11,6,-11,6v0,0,-10,-35,-76,-35v-103,0,-195,81,-195,132v0,0,-1,72,73,72v56,0,130,-51,162,-75v-18,4,-33,7,-44,8v-61,8,-81,-34,-84,-54v-3,-20,9,-7,9,-7v7,25,136,23,173,9v0,0,120,-117,120,-139v0,-11,45,16,45,52v0,7,-21,48,-33,70r59,-12v4,-1,5,2,5,6v0,6,-8,10,-30,16v0,0,-18,6,-45,12v-9,12,-43,79,-43,145v0,96,46,127,84,127v17,0,42,-11,42,-26xm135,-185r45,-7v12,-26,58,-101,58,-101xm216,-345v0,-10,45,-36,58,-45v5,6,31,48,25,53v-7,0,-25,-12,-35,-23v-17,8,-42,17,-48,15","w":217},"\u00c3":{"d":"305,69v0,-15,13,-12,13,0v0,12,-14,31,-60,31v-94,0,-115,-98,-115,-157v0,-59,25,-106,25,-106v-26,2,-45,10,-68,14v-27,29,-123,125,-203,125v-63,0,-99,-51,-99,-112v0,-101,131,-174,223,-174v56,0,73,58,73,72v0,14,-11,6,-11,6v0,0,-10,-35,-76,-35v-103,0,-195,81,-195,132v0,0,-1,72,73,72v56,0,130,-51,162,-75v-18,4,-33,7,-44,8v-61,8,-81,-34,-84,-54v-3,-20,9,-7,9,-7v7,25,136,23,173,9v0,0,120,-117,120,-139v0,-11,45,16,45,52v0,7,-21,48,-33,70r59,-12v4,-1,5,2,5,6v0,6,-8,10,-30,16v0,0,-18,6,-45,12v-9,12,-43,79,-43,145v0,96,46,127,84,127v17,0,42,-11,42,-26xm135,-185r45,-7v12,-26,58,-101,58,-101xm265,-381v14,0,27,11,34,20v-6,6,-9,-5,-20,-5v-17,0,-35,15,-50,15v-15,1,-34,-15,-25,-23v14,16,42,-7,61,-7","w":217},"\u00c4":{"d":"305,69v0,-15,13,-12,13,0v0,12,-14,31,-60,31v-94,0,-115,-98,-115,-157v0,-59,25,-106,25,-106v-26,2,-45,10,-68,14v-27,29,-123,125,-203,125v-63,0,-99,-51,-99,-112v0,-101,131,-174,223,-174v56,0,73,58,73,72v0,14,-11,6,-11,6v0,0,-10,-35,-76,-35v-103,0,-195,81,-195,132v0,0,-1,72,73,72v56,0,130,-51,162,-75v-18,4,-33,7,-44,8v-61,8,-81,-34,-84,-54v-3,-20,9,-7,9,-7v7,25,136,23,173,9v0,0,120,-117,120,-139v0,-11,45,16,45,52v0,7,-21,48,-33,70r59,-12v4,-1,5,2,5,6v0,6,-8,10,-30,16v0,0,-18,6,-45,12v-9,12,-43,79,-43,145v0,96,46,127,84,127v17,0,42,-11,42,-26xm135,-185r45,-7v12,-26,58,-101,58,-101xm236,-363v-8,36,-46,23,-46,0v0,-14,11,-20,22,-20v12,0,24,6,24,20xm318,-363v-8,36,-46,23,-46,0v0,-14,11,-20,22,-20v12,0,24,6,24,20","w":217},"\u00c8":{"d":"178,34v-71,21,-178,-2,-178,-115v0,-95,134,-128,180,-128v0,0,-22,-21,-22,-58v0,-44,58,-84,119,-84v61,0,75,36,75,46v0,10,-10,8,-10,4v0,0,-13,-26,-66,-26v-48,0,-72,47,-72,64v0,58,44,55,44,61v0,6,2,15,-40,15v-92,0,-145,54,-145,114v0,49,25,93,69,93v49,-11,32,8,33,-29v0,-18,18,-27,18,-27v-4,12,4,36,4,36v0,0,21,-9,21,-30v0,-21,-18,-17,-18,-17v9,-18,44,-16,44,20v0,21,-20,38,-36,49v28,43,71,68,104,62v17,-4,20,-13,20,-13v-7,-8,3,-25,7,-7v4,19,-9,40,-46,48v-40,8,-80,-31,-105,-78xm287,-365v-9,0,-53,-43,-53,-57v0,-11,34,-30,34,-16v0,20,37,73,19,73","w":241},"\u00c9":{"d":"178,34v-71,21,-178,-2,-178,-115v0,-95,134,-128,180,-128v0,0,-22,-21,-22,-58v0,-44,58,-84,119,-84v61,0,75,36,75,46v0,10,-10,8,-10,4v0,0,-13,-26,-66,-26v-48,0,-72,47,-72,64v0,58,44,55,44,61v0,6,2,15,-40,15v-92,0,-145,54,-145,114v0,49,25,93,69,93v49,-11,32,8,33,-29v0,-18,18,-27,18,-27v-4,12,4,36,4,36v0,0,21,-9,21,-30v0,-21,-18,-17,-18,-17v9,-18,44,-16,44,20v0,21,-20,38,-36,49v28,43,71,68,104,62v17,-4,20,-13,20,-13v-7,-8,3,-25,7,-7v4,19,-9,40,-46,48v-40,8,-80,-31,-105,-78xm267,-365v-18,0,19,-53,19,-73v0,-14,34,5,34,16v0,14,-44,57,-53,57","w":241},"\u00ca":{"d":"178,34v-71,21,-178,-2,-178,-115v0,-95,134,-128,180,-128v0,0,-22,-21,-22,-58v0,-44,58,-84,119,-84v61,0,75,36,75,46v0,10,-10,8,-10,4v0,0,-13,-26,-66,-26v-48,0,-72,47,-72,64v0,58,44,55,44,61v0,6,2,15,-40,15v-92,0,-145,54,-145,114v0,49,25,93,69,93v49,-11,32,8,33,-29v0,-18,18,-27,18,-27v-4,12,4,36,4,36v0,0,21,-9,21,-30v0,-21,-18,-17,-18,-17v9,-18,44,-16,44,20v0,21,-20,38,-36,49v28,43,71,68,104,62v17,-4,20,-13,20,-13v-7,-8,3,-25,7,-7v4,19,-9,40,-46,48v-40,8,-80,-31,-105,-78xm249,-372v-1,-10,46,-35,58,-45v9,11,31,46,26,53v-7,0,-25,-12,-35,-23v-17,8,-43,17,-49,15","w":241},"\u00cb":{"d":"178,34v-71,21,-178,-2,-178,-115v0,-95,134,-128,180,-128v0,0,-22,-21,-22,-58v0,-44,58,-84,119,-84v61,0,75,36,75,46v0,10,-10,8,-10,4v0,0,-13,-26,-66,-26v-48,0,-72,47,-72,64v0,58,44,55,44,61v0,6,2,15,-40,15v-92,0,-145,54,-145,114v0,49,25,93,69,93v49,-11,32,8,33,-29v0,-18,18,-27,18,-27v-4,12,4,36,4,36v0,0,21,-9,21,-30v0,-21,-18,-17,-18,-17v9,-18,44,-16,44,20v0,21,-20,38,-36,49v28,43,71,68,104,62v17,-4,20,-13,20,-13v-7,-8,3,-25,7,-7v4,19,-9,40,-46,48v-40,8,-80,-31,-105,-78xm267,-387v-8,36,-46,23,-46,0v0,-14,11,-20,22,-20v12,0,24,6,24,20xm349,-387v-8,36,-46,23,-46,0v0,-14,11,-20,22,-20v12,0,24,6,24,20","w":241},"\u00cc":{"d":"10,-202v0,10,-32,-16,-34,-33v-2,-17,88,-118,185,-118v72,0,95,59,97,71v15,110,-192,313,-280,313v-87,0,-68,-65,-63,-65v5,0,3,38,21,38v118,0,289,-248,280,-310v-9,-65,-207,69,-207,95v0,4,1,6,1,9xm235,-359v-9,0,-53,-43,-53,-57v0,-11,34,-30,34,-16v0,20,37,73,19,73","w":190},"\u00cd":{"d":"10,-202v0,10,-32,-16,-34,-33v-2,-17,88,-118,185,-118v72,0,95,59,97,71v15,110,-192,313,-280,313v-87,0,-68,-65,-63,-65v5,0,3,38,21,38v118,0,289,-248,280,-310v-9,-65,-207,69,-207,95v0,4,1,6,1,9xm200,-359v-18,0,19,-53,19,-73v0,-14,34,5,34,16v0,14,-44,57,-53,57","w":190},"\u00ce":{"d":"-24,-235v3,18,42,54,33,24v0,-26,198,-160,207,-95v9,62,-162,310,-280,310v-18,0,-16,-38,-21,-38v-5,0,-24,65,63,65v88,0,295,-203,280,-313v-2,-12,-25,-71,-97,-71v-97,0,-187,101,-185,118xm181,-381v0,-8,48,-34,58,-45v6,7,32,49,26,54v-7,0,-25,-13,-35,-24v-17,8,-43,17,-49,15","w":190},"\u00cf":{"d":"10,-202v0,10,-32,-16,-34,-33v-2,-17,88,-118,185,-118v72,0,95,59,97,71v15,110,-192,313,-280,313v-87,0,-68,-65,-63,-65v5,0,3,38,21,38v118,0,289,-248,280,-310v-9,-65,-207,69,-207,95v0,4,1,6,1,9xm203,-393v-8,34,-46,23,-46,0v0,-14,11,-21,22,-21v12,0,24,7,24,21xm285,-393v-8,34,-46,23,-46,0v0,-14,11,-21,22,-21v12,0,24,7,24,21","w":190},"\u00d1":{"d":"130,-32v0,-73,89,-156,89,-156v-30,0,-186,172,-186,211v0,10,-33,6,-33,-28v0,-97,165,-250,165,-295v0,-15,-13,-27,-36,-27v-48,0,-169,68,-169,141v0,31,56,41,70,16v11,-21,-24,-32,-7,-37v14,1,23,15,14,38v-20,48,-117,26,-117,-27v0,-64,110,-144,212,-144v54,0,61,48,61,69v0,54,-102,153,-102,168v0,0,122,-121,139,-121v17,0,23,32,23,43v0,22,-85,100,-85,159v0,69,26,141,75,141v50,0,62,-46,62,-46v0,0,0,-13,14,-13v12,0,6,20,6,20v0,0,-17,55,-78,55v-61,0,-117,-71,-117,-167xm270,-308v14,0,30,9,35,20v-6,7,-10,-7,-21,-6v-17,0,-34,16,-49,16v-15,1,-36,-16,-25,-23v13,16,42,-7,60,-7","w":204},"\u00d2":{"d":"271,-353v39,0,67,25,67,79v0,102,-130,286,-239,286v-44,0,-99,-26,-99,-120v0,-93,86,-194,122,-194v27,0,32,13,32,13v0,0,49,-64,117,-64xm101,-9v97,0,164,-146,164,-146v0,0,-19,6,-37,6v-73,0,-83,-94,-83,-94v0,0,-94,72,-94,150v0,51,18,84,50,84xm280,-181v0,0,56,-117,-9,-117v-56,0,-86,47,-86,70v0,33,18,61,46,61v28,0,49,-14,49,-14xm287,-365v-9,0,-53,-43,-53,-57v0,-11,34,-30,34,-16v0,20,37,73,19,73","w":265},"\u00d3":{"d":"271,-353v39,0,67,25,67,79v0,102,-130,286,-239,286v-44,0,-99,-26,-99,-120v0,-93,86,-194,122,-194v27,0,32,13,32,13v0,0,49,-64,117,-64xm101,-9v97,0,164,-146,164,-146v0,0,-19,6,-37,6v-73,0,-83,-94,-83,-94v0,0,-94,72,-94,150v0,51,18,84,50,84xm280,-181v0,0,56,-117,-9,-117v-56,0,-86,47,-86,70v0,33,18,61,46,61v28,0,49,-14,49,-14xm277,-365v-18,0,19,-53,19,-73v0,-14,34,5,34,16v0,14,-44,57,-53,57","w":265},"\u00d4":{"d":"271,-353v39,0,67,25,67,79v0,102,-130,286,-239,286v-44,0,-99,-26,-99,-120v0,-93,86,-194,122,-194v27,0,32,13,32,13v0,0,49,-64,117,-64xm101,-9v97,0,164,-146,164,-146v0,0,-19,6,-37,6v-73,0,-83,-94,-83,-94v0,0,-94,72,-94,150v0,51,18,84,50,84xm280,-181v0,0,56,-117,-9,-117v-56,0,-86,47,-86,70v0,33,18,61,46,61v28,0,49,-14,49,-14xm233,-381v-1,-10,46,-35,58,-45v10,10,26,43,28,52v-10,4,-25,-11,-37,-22v-17,8,-43,17,-49,15","w":265},"\u00d5":{"d":"271,-353v39,0,67,25,67,79v0,102,-130,286,-239,286v-44,0,-99,-26,-99,-120v0,-93,86,-194,122,-194v27,0,32,13,32,13v0,0,49,-64,117,-64xm101,-9v97,0,164,-146,164,-146v0,0,-19,6,-37,6v-73,0,-83,-94,-83,-94v0,0,-94,72,-94,150v0,51,18,84,50,84xm280,-181v0,0,56,-117,-9,-117v-56,0,-86,47,-86,70v0,33,18,61,46,61v28,0,49,-14,49,-14xm297,-402v14,0,27,9,34,19v-5,9,-9,-7,-20,-5v-26,4,-69,30,-78,-5v5,-6,5,4,18,4v17,0,29,-13,46,-13","w":265},"\u00d6":{"d":"271,-353v39,0,67,25,67,79v0,102,-130,286,-239,286v-44,0,-99,-26,-99,-120v0,-93,86,-194,122,-194v27,0,32,13,32,13v0,0,49,-64,117,-64xm101,-9v97,0,164,-146,164,-146v0,0,-19,6,-37,6v-73,0,-83,-94,-83,-94v0,0,-94,72,-94,150v0,51,18,84,50,84xm280,-181v0,0,56,-117,-9,-117v-56,0,-86,47,-86,70v0,33,18,61,46,61v28,0,49,-14,49,-14xm230,-373v-12,0,-24,-7,-24,-20v0,-28,46,-28,46,0v0,21,-21,20,-22,20xm312,-373v-12,0,-24,-7,-24,-20v0,-28,46,-28,46,0v0,21,-21,20,-22,20","w":265},"\u00d9":{"d":"199,-181v12,-19,35,-55,43,-75v3,-8,0,-18,10,-18v10,0,29,16,26,48v-21,57,-122,199,-102,199v22,0,76,-52,108,-100v5,-8,17,-5,9,7v-8,12,-83,118,-119,118v-5,0,-34,-13,-34,-30v0,-51,31,-104,31,-104v-8,12,-107,134,-139,134v-27,0,-32,-30,-32,-49v0,-26,133,-237,133,-264v0,-13,-14,-25,-35,-25v-50,0,-170,86,-162,174v3,38,27,41,36,41v33,0,22,-25,34,-25v12,0,14,37,-39,37v-53,0,-73,-38,-75,-64v-7,-78,100,-174,208,-174v49,0,59,43,61,62v4,50,-121,235,-104,235v10,0,142,-127,142,-127xm239,-307v-9,0,-53,-43,-53,-57v0,-11,34,-30,34,-16v0,20,37,73,19,73","w":232},"\u00da":{"d":"199,-181v12,-19,35,-55,43,-75v3,-8,0,-18,10,-18v10,0,29,16,26,48v-21,57,-122,199,-102,199v22,0,76,-52,108,-100v5,-8,17,-5,9,7v-8,12,-83,118,-119,118v-5,0,-34,-13,-34,-30v0,-51,31,-104,31,-104v-8,12,-107,134,-139,134v-27,0,-32,-30,-32,-49v0,-26,133,-237,133,-264v0,-13,-14,-25,-35,-25v-50,0,-170,86,-162,174v3,38,27,41,36,41v33,0,22,-25,34,-25v12,0,14,37,-39,37v-53,0,-73,-38,-75,-64v-7,-78,100,-174,208,-174v49,0,59,43,61,62v4,50,-121,235,-104,235v10,0,142,-127,142,-127xm204,-307v-18,0,19,-53,19,-73v0,-14,34,5,34,16v0,14,-44,57,-53,57","w":232},"\u00db":{"d":"199,-181v12,-19,35,-55,43,-75v3,-8,0,-18,10,-18v10,0,29,16,26,48v-21,57,-122,199,-102,199v22,0,76,-52,108,-100v5,-8,17,-5,9,7v-8,12,-83,118,-119,118v-5,0,-34,-13,-34,-30v0,-51,31,-104,31,-104v-8,12,-107,134,-139,134v-27,0,-32,-30,-32,-49v0,-26,133,-237,133,-264v0,-13,-14,-25,-35,-25v-50,0,-170,86,-162,174v3,38,27,41,36,41v33,0,22,-25,34,-25v12,0,14,37,-39,37v-53,0,-73,-38,-75,-64v-7,-78,100,-174,208,-174v49,0,59,43,61,62v4,50,-121,235,-104,235v10,0,142,-127,142,-127xm185,-313v-1,-10,46,-35,58,-45v9,11,31,46,26,53v-7,0,-25,-12,-35,-23v-17,8,-43,17,-49,15","w":232},"\u00dc":{"d":"199,-181v12,-19,35,-55,43,-75v3,-8,0,-18,10,-18v10,0,29,16,26,48v-21,57,-122,199,-102,199v22,0,76,-52,108,-100v5,-8,17,-5,9,7v-8,12,-83,118,-119,118v-5,0,-34,-13,-34,-30v0,-51,31,-104,31,-104v-8,12,-107,134,-139,134v-27,0,-32,-30,-32,-49v0,-26,133,-237,133,-264v0,-13,-14,-25,-35,-25v-50,0,-170,86,-162,174v3,38,27,41,36,41v33,0,22,-25,34,-25v12,0,14,37,-39,37v-53,0,-73,-38,-75,-64v-7,-78,100,-174,208,-174v49,0,59,43,61,62v4,50,-121,235,-104,235v10,0,142,-127,142,-127xm201,-303v1,0,22,0,22,-21v0,-26,-46,-28,-46,0v0,13,12,21,24,21xm283,-303v1,0,22,0,22,-21v0,-14,-11,-20,-23,-20v-11,0,-23,6,-23,20v0,13,12,21,24,21","w":232},"\u00dd":{"d":"274,-187r-156,296v-28,48,-63,88,-100,98v-17,5,-40,-4,-48,-31v-8,-28,133,-143,133,-143v32,-46,89,-168,89,-168v-9,13,-119,134,-156,134v-31,0,-36,-33,-36,-55v0,-37,130,-221,130,-262v0,-14,-16,-27,-39,-27v-55,0,-182,92,-174,187v4,41,29,45,39,45v36,0,24,-28,37,-28v13,0,14,40,-43,40v-57,0,-78,-42,-80,-69v-8,-85,108,-181,224,-181v52,0,63,40,65,60v5,54,-121,246,-108,246v14,0,152,-116,152,-116v15,-29,46,-90,46,-104v0,-11,38,2,38,41v0,7,-4,20,-13,37xm-1,183v42,-12,94,-125,94,-125v0,0,-115,102,-111,117v2,8,9,11,17,8xm209,-298v-18,0,19,-53,19,-73v0,-14,34,5,34,16v0,14,-44,57,-53,57","w":225},"\u00e0":{"d":"128,-180v21,0,35,39,27,39v-42,0,-138,122,-112,122v9,0,84,-83,80,-89v-4,-6,25,-1,25,25v0,26,-34,64,-22,64v11,0,65,-59,97,-107v5,-8,17,-3,8,8v-12,15,-114,183,-145,87v0,-9,7,-22,7,-22v0,0,-46,53,-59,53v-13,0,-34,-16,-34,-42v0,-42,88,-138,128,-138xm180,-192v-9,0,-54,-43,-54,-57v0,-11,35,-30,35,-16v0,20,37,73,19,73","w":173},"\u00e1":{"d":"128,-180v21,0,35,39,27,39v-42,0,-138,122,-112,122v9,0,84,-83,80,-89v-4,-6,25,-1,25,25v0,26,-34,64,-22,64v11,0,65,-59,97,-107v5,-8,17,-3,8,8v-12,15,-114,183,-145,87v0,-9,7,-22,7,-22v0,0,-46,53,-59,53v-13,0,-34,-16,-34,-42v0,-42,88,-138,128,-138xm144,-192v-18,0,19,-53,19,-73v0,-14,34,5,34,16v0,14,-44,57,-53,57","w":173},"\u00e2":{"d":"128,-180v21,0,35,39,27,39v-42,0,-138,122,-112,122v9,0,84,-83,80,-89v-4,-6,25,-1,25,25v0,26,-34,64,-22,64v11,0,65,-59,97,-107v5,-8,17,-3,8,8v-12,15,-114,183,-145,87v0,-9,7,-22,7,-22v0,0,-46,53,-59,53v-13,0,-34,-16,-34,-42v0,-42,88,-138,128,-138xm101,-202v0,-8,48,-34,58,-45v5,7,31,49,25,54v-7,0,-25,-13,-35,-24v-17,8,-42,17,-48,15","w":173},"\u00e3":{"d":"128,-180v21,0,35,39,27,39v-42,0,-138,122,-112,122v9,0,84,-83,80,-89v-4,-6,25,-1,25,25v0,26,-34,64,-22,64v11,0,65,-59,97,-107v5,-8,17,-3,8,8v-12,15,-114,183,-145,87v0,-9,7,-22,7,-22v0,0,-46,53,-59,53v-13,0,-34,-16,-34,-42v0,-42,88,-138,128,-138xm157,-239v18,0,39,12,45,26v-8,9,-13,-9,-27,-8v-22,0,-44,21,-65,21v-21,0,-36,-14,-38,-27v8,-9,7,6,24,6v23,0,39,-18,61,-18","w":173},"\u00e4":{"d":"128,-180v21,0,35,39,27,39v-42,0,-138,122,-112,122v9,0,84,-83,80,-89v-4,-6,25,-1,25,25v0,26,-34,64,-22,64v11,0,65,-59,97,-107v5,-8,17,-3,8,8v-12,15,-114,183,-145,87v0,-9,7,-22,7,-22v0,0,-46,53,-59,53v-13,0,-34,-16,-34,-42v0,-42,88,-138,128,-138xm108,-225v-8,36,-46,23,-46,0v0,-14,11,-20,22,-20v12,0,24,6,24,20xm190,-225v-8,36,-46,23,-46,0v0,-14,11,-20,22,-20v12,0,24,6,24,20","w":173},"\u00e8":{"d":"179,-126v5,-8,16,-4,8,8v-8,12,-94,118,-140,118v0,0,-34,-1,-34,-45v0,-65,85,-135,109,-135v9,0,26,7,26,41v0,34,-76,93,-95,93v0,0,-14,24,5,24v24,0,89,-56,121,-104xm119,-135v-12,0,-60,76,-60,76v49,-29,72,-76,60,-76xm143,-192v-9,0,-53,-43,-53,-57v0,-11,34,-30,34,-16v0,20,37,73,19,73","w":128},"\u00e9":{"d":"179,-126v5,-8,16,-4,8,8v-8,12,-94,118,-140,118v0,0,-34,-1,-34,-45v0,-65,85,-135,109,-135v9,0,26,7,26,41v0,34,-76,93,-95,93v0,0,-14,24,5,24v24,0,89,-56,121,-104xm119,-135v-12,0,-60,76,-60,76v49,-29,72,-76,60,-76xm108,-192v-18,0,19,-53,19,-73v0,-14,34,5,34,16v0,14,-44,57,-53,57","w":128},"\u00ea":{"d":"179,-126v5,-8,16,-4,8,8v-8,12,-94,118,-140,118v0,0,-34,-1,-34,-45v0,-65,85,-135,109,-135v9,0,26,7,26,41v0,34,-76,93,-95,93v0,0,-14,24,5,24v24,0,89,-56,121,-104xm119,-135v-12,0,-60,76,-60,76v49,-29,72,-76,60,-76xm90,-202v0,-8,48,-34,58,-45v6,7,32,49,26,54v-7,0,-25,-13,-35,-24v-17,8,-43,17,-49,15","w":128},"\u00eb":{"d":"179,-126v5,-8,16,-4,8,8v-8,12,-94,118,-140,118v0,0,-34,-1,-34,-45v0,-65,85,-135,109,-135v9,0,26,7,26,41v0,34,-76,93,-95,93v0,0,-14,24,5,24v24,0,89,-56,121,-104xm119,-135v-12,0,-60,76,-60,76v49,-29,72,-76,60,-76xm108,-225v-8,36,-46,23,-46,0v0,-14,11,-20,22,-20v12,0,24,6,24,20xm190,-225v-8,36,-46,23,-46,0v0,-14,11,-20,22,-20v12,0,24,6,24,20","w":128},"\u00ec":{"d":"157,-127v5,-8,16,-5,8,7v-8,12,-86,119,-119,119v-27,0,-34,-30,-32,-49v2,-26,39,-70,56,-113v3,-7,0,-16,9,-16v9,0,26,15,23,43v-3,28,-83,117,-45,117v11,0,68,-59,100,-108xm113,-192v-9,0,-53,-43,-53,-57v0,-11,34,-30,34,-16v0,20,37,73,19,73","w":106},"\u00ed":{"d":"157,-127v5,-8,16,-5,8,7v-8,12,-86,119,-119,119v-27,0,-34,-30,-32,-49v2,-26,39,-70,56,-113v3,-7,0,-16,9,-16v9,0,26,15,23,43v-3,28,-83,117,-45,117v11,0,68,-59,100,-108xm101,-192v-18,0,19,-53,19,-73v0,-14,34,5,34,16v0,14,-44,57,-53,57","w":106},"\u00ee":{"d":"157,-127v5,-8,16,-5,8,7v-8,12,-86,119,-119,119v-27,0,-34,-30,-32,-49v2,-26,39,-70,56,-113v3,-7,0,-16,9,-16v9,0,26,15,23,43v-3,28,-83,117,-45,117v11,0,68,-59,100,-108xm52,-198v-1,-8,42,-40,53,-50v7,7,37,44,31,51v-7,1,-25,-10,-37,-20v-17,10,-41,20,-47,19","w":106},"\u00ef":{"d":"157,-127v5,-8,16,-5,8,7v-8,12,-86,119,-119,119v-27,0,-34,-30,-32,-49v2,-26,39,-70,56,-113v3,-7,0,-16,9,-16v9,0,26,15,23,43v-3,28,-83,117,-45,117v11,0,68,-59,100,-108xm86,-225v-8,36,-46,23,-46,0v0,-14,11,-20,22,-20v12,0,24,6,24,20xm150,-225v-8,36,-46,23,-46,0v0,-14,11,-20,22,-20v12,0,24,6,24,20","w":106},"\u00f1":{"d":"113,0v-14,0,-25,-19,-25,-46v0,-30,53,-102,53,-102v-12,0,-114,120,-114,137v0,27,-25,-1,-25,-29v0,-30,71,-104,71,-140v0,-13,27,1,27,37v0,18,-13,30,-13,30v0,0,66,-67,78,-67v13,0,20,18,20,36v0,18,-84,126,-67,126v22,0,74,-62,106,-110v5,-8,16,-5,8,7v-8,12,-83,121,-119,121xm170,-246v20,1,40,13,48,28v-6,9,-13,-9,-28,-8v-23,0,-48,22,-70,22v-22,0,-39,-15,-41,-29v8,-9,8,6,26,6v24,0,42,-19,65,-19","w":172},"\u00f2":{"d":"130,-48v-18,22,-44,46,-73,48v-14,0,-39,-7,-39,-45v0,-81,101,-183,152,-106v1,3,-2,8,-18,8v-60,0,-120,128,-89,128v21,0,60,-43,60,-43v0,0,-3,-9,-3,-22v0,-29,36,-41,36,-11v0,6,-6,18,-18,33v26,9,36,-24,69,-69v5,-8,17,-4,9,8v-8,12,-48,95,-86,71xm162,-192v-9,0,-54,-43,-54,-57v0,-11,35,-30,35,-16v0,20,37,73,19,73","w":157},"\u00f3":{"d":"130,-48v-18,22,-44,46,-73,48v-14,0,-39,-7,-39,-45v0,-81,101,-183,152,-106v1,3,-2,8,-18,8v-60,0,-120,128,-89,128v21,0,60,-43,60,-43v0,0,-3,-9,-3,-22v0,-29,36,-41,36,-11v0,6,-6,18,-18,33v26,9,36,-24,69,-69v5,-8,17,-4,9,8v-8,12,-48,95,-86,71xm144,-192v-18,0,19,-53,19,-73v0,-14,34,5,34,16v0,14,-44,57,-53,57","w":157},"\u00f4":{"d":"130,-48v-18,22,-44,46,-73,48v-14,0,-39,-7,-39,-45v0,-81,101,-183,152,-106v1,3,-2,8,-18,8v-60,0,-120,128,-89,128v21,0,60,-43,60,-43v0,0,-3,-9,-3,-22v0,-29,36,-41,36,-11v0,6,-6,18,-18,33v26,9,36,-24,69,-69v5,-8,17,-4,9,8v-8,12,-48,95,-86,71xm146,-248v6,7,33,44,30,51v-7,1,-26,-10,-37,-20v-18,8,-42,24,-48,17v5,-6,43,-38,55,-48","w":157},"\u00f5":{"d":"130,-48v-18,22,-44,46,-73,48v-14,0,-39,-7,-39,-45v0,-81,101,-183,152,-106v1,3,-2,8,-18,8v-60,0,-120,128,-89,128v21,0,60,-43,60,-43v0,0,-3,-9,-3,-22v0,-29,36,-41,36,-11v0,6,-6,18,-18,33v26,9,36,-24,69,-69v5,-8,17,-4,9,8v-8,12,-48,95,-86,71xm157,-239v18,0,39,12,45,26v-8,9,-13,-9,-27,-8v-22,0,-44,21,-65,21v-21,0,-36,-14,-38,-27v8,-9,7,6,24,6v23,0,39,-18,61,-18","w":157},"\u00f6":{"d":"130,-48v-18,22,-44,46,-73,48v-14,0,-39,-7,-39,-45v0,-81,101,-183,152,-106v1,3,-2,8,-18,8v-60,0,-120,128,-89,128v21,0,60,-43,60,-43v0,0,-3,-9,-3,-22v0,-29,36,-41,36,-11v0,6,-6,18,-18,33v26,9,36,-24,69,-69v5,-8,17,-4,9,8v-8,12,-48,95,-86,71xm115,-225v-8,36,-46,23,-46,0v0,-14,11,-20,22,-20v12,0,24,6,24,20xm197,-225v-8,36,-46,23,-46,0v0,-14,11,-20,22,-20v12,0,24,6,24,20","w":157},"\u00f7":{"d":"222,-105v14,0,20,8,20,11v1,15,-126,18,-144,18v-19,0,-33,-34,-25,-34v3,0,93,5,149,5xm205,-145v-8,36,-46,23,-46,0v0,-14,11,-20,22,-20v12,0,24,6,24,20xm165,-38v-8,36,-46,23,-46,0v0,-14,11,-20,22,-20v12,0,24,6,24,20","w":247},"\u00f9":{"d":"120,0v-26,0,-36,-41,-22,-60v0,0,-43,60,-65,60v-15,0,-31,-12,-29,-39v2,-25,64,-104,67,-138v1,-8,34,4,32,33v-2,29,-87,129,-63,129v9,0,118,-122,121,-163v1,-8,32,8,30,37v-2,29,-84,127,-62,127v11,0,70,-64,102,-112v5,-8,16,-4,8,8v-8,12,-86,118,-119,118xm154,-192v-9,0,-54,-43,-54,-57v0,-11,35,-30,35,-16v0,20,37,73,19,73"},"\u00fa":{"d":"120,0v-26,0,-36,-41,-22,-60v0,0,-43,60,-65,60v-15,0,-31,-12,-29,-39v2,-25,64,-104,67,-138v1,-8,34,4,32,33v-2,29,-87,129,-63,129v9,0,118,-122,121,-163v1,-8,32,8,30,37v-2,29,-84,127,-62,127v11,0,70,-64,102,-112v5,-8,16,-4,8,8v-8,12,-86,118,-119,118xm138,-192v-18,0,19,-53,19,-73v0,-14,35,5,35,16v0,14,-45,57,-54,57"},"\u00fb":{"d":"120,0v-26,0,-36,-41,-22,-60v0,0,-43,60,-65,60v-15,0,-31,-12,-29,-39v2,-25,64,-104,67,-138v1,-8,34,4,32,33v-2,29,-87,129,-63,129v9,0,118,-122,121,-163v1,-8,32,8,30,37v-2,29,-84,127,-62,127v11,0,70,-64,102,-112v5,-8,16,-4,8,8v-8,12,-86,118,-119,118xm101,-202v0,-8,48,-34,58,-45v5,7,31,49,25,54v-7,0,-25,-13,-35,-24v-17,8,-42,17,-48,15"},"\u00fc":{"d":"120,0v-26,0,-36,-41,-22,-60v0,0,-43,60,-65,60v-15,0,-31,-12,-29,-39v2,-25,64,-104,67,-138v1,-8,34,4,32,33v-2,29,-87,129,-63,129v9,0,118,-122,121,-163v1,-8,32,8,30,37v-2,29,-84,127,-62,127v11,0,70,-64,102,-112v5,-8,16,-4,8,8v-8,12,-86,118,-119,118xm133,-225v-8,36,-46,23,-46,0v0,-14,11,-20,22,-20v12,0,24,6,24,20xm197,-225v-8,36,-46,23,-46,0v0,-14,11,-20,22,-20v12,0,24,6,24,20"},"\u00fd":{"d":"217,-128v5,-8,17,-5,9,7v-7,12,-83,104,-120,118v-23,37,-53,73,-82,99v-26,24,-48,40,-76,40v-14,0,-32,-11,-34,-35v-2,-23,129,-82,129,-82v4,-5,10,-13,16,-23v-20,12,-43,-5,-47,-35v-3,-26,57,-104,54,-138v-1,-9,28,5,31,34v3,29,-69,128,-47,128v25,0,97,-124,93,-165v-1,-7,24,10,27,38v1,19,-17,64,-48,115v23,-16,69,-62,95,-101xm-64,113v35,0,94,-77,94,-77v0,0,-108,54,-107,67v1,6,7,10,13,10xm126,-192v-18,0,19,-53,19,-73v0,-14,34,5,34,16v0,14,-44,57,-53,57","w":168},"\u00e5":{"d":"128,-180v21,0,35,39,27,39v-42,0,-138,122,-112,122v9,0,84,-83,80,-89v-4,-6,25,-1,25,25v0,26,-34,64,-22,64v11,0,65,-59,97,-107v5,-8,17,-3,8,8v-12,15,-114,183,-145,87v0,-9,7,-22,7,-22v0,0,-46,53,-59,53v-13,0,-34,-16,-34,-42v0,-42,88,-138,128,-138xm159,-249v24,15,-9,53,-30,53v-26,0,-39,-35,-20,-54v9,-10,23,-17,35,-17v12,0,13,15,4,16v-19,-4,-49,34,-22,41v11,0,31,-17,27,-31v0,-4,1,-9,6,-8","w":173},"\u00c5":{"d":"305,69v0,-15,13,-12,13,0v0,12,-14,31,-60,31v-94,0,-115,-98,-115,-157v0,-59,25,-106,25,-106v-26,2,-45,10,-68,14v-27,29,-123,125,-203,125v-63,0,-99,-51,-99,-112v0,-101,131,-174,223,-174v56,0,73,58,73,72v0,14,-11,6,-11,6v0,0,-10,-35,-76,-35v-103,0,-195,81,-195,132v0,0,-1,72,73,72v56,0,130,-51,162,-75v-18,4,-33,7,-44,8v-61,8,-81,-34,-84,-54v-3,-20,9,-7,9,-7v7,25,136,23,173,9v0,0,120,-117,120,-139v0,-11,45,16,45,52v0,7,-21,48,-33,70r59,-12v4,-1,5,2,5,6v0,6,-8,10,-30,16v0,0,-18,6,-45,12v-9,12,-43,79,-43,145v0,96,46,127,84,127v17,0,42,-11,42,-26xm135,-185r45,-7v12,-26,58,-101,58,-101xm282,-397v23,16,-11,54,-31,54v-25,0,-39,-35,-20,-54v9,-10,23,-18,35,-18v11,0,14,15,4,16v-19,-4,-49,35,-22,42v12,0,31,-18,27,-32v0,-5,2,-8,7,-8","w":217},"\u00e6":{"d":"43,-19v10,-2,67,-67,82,-90v27,-39,70,-69,86,-69v9,0,25,5,25,39v0,34,-76,93,-95,93v0,0,-13,24,6,24v24,0,88,-56,120,-104v5,-8,17,-3,8,8v-9,12,-86,113,-141,118v-28,3,-36,-42,-35,-58v0,0,-52,58,-65,58v-13,0,-34,-16,-34,-42v0,-42,70,-136,111,-136v21,0,35,36,27,36v-42,0,-121,123,-95,123xm207,-135v-12,0,-60,76,-60,76v49,-29,72,-76,60,-76","w":216},"\u00c6":{"d":"387,-322v53,0,66,31,66,40v0,9,-9,8,-9,4v0,0,-11,-22,-57,-22v-42,0,-63,41,-63,56v0,51,38,46,38,52v0,6,2,14,-35,14v-81,0,-127,47,-127,100v0,43,22,81,60,81v43,-9,29,7,29,-25v0,-15,16,-24,16,-24v-4,10,3,31,3,31v0,0,19,-8,19,-26v0,-18,-16,-14,-16,-14v8,-16,39,-15,39,18v0,18,-18,33,-32,42v28,42,77,73,108,43v-6,-6,3,-22,6,-6v3,16,-7,35,-39,42v-35,7,-71,-28,-93,-69v-62,22,-160,-3,-155,-106v2,-37,23,-72,23,-72v-25,3,-46,10,-69,15v-27,29,-123,124,-203,124v-63,0,-99,-50,-99,-111v0,-101,132,-175,224,-175v56,0,72,59,72,73v0,14,-11,5,-11,5v0,0,-10,-35,-76,-35v-103,0,-195,81,-195,132v0,0,-1,72,73,72v56,0,130,-50,162,-74v-18,4,-33,7,-44,8v-61,8,-80,-35,-83,-55v-3,-20,8,-6,8,-6v7,24,136,24,173,9v0,0,121,-118,121,-140v0,-11,44,16,44,52v0,6,-30,66,-43,90v31,-13,63,-18,80,-18v0,0,-19,-19,-19,-51v0,-38,50,-74,104,-74xm180,-191v12,-26,57,-101,57,-101r-103,108","w":355},"\u00c7":{"d":"107,49v-27,0,-65,9,-41,-29v-48,-4,-90,-41,-76,-116v16,-91,79,-164,145,-211v49,-35,104,-54,138,-13v4,-10,7,-22,9,-34v-11,-18,-12,-33,3,-37v14,2,41,28,36,65v-3,27,-20,51,-30,74v-11,26,13,43,-7,43v-11,0,-24,-36,-24,-36v-7,-9,3,-55,-22,-49v-99,22,-189,128,-207,235v-7,45,16,64,46,64v143,0,198,-129,198,-129v6,-9,18,-5,9,8v0,0,-52,130,-197,136r-6,10v34,-12,55,25,32,51v-18,21,-64,32,-73,1v-1,-5,0,-16,10,-14v0,7,5,13,11,13v21,2,47,-16,46,-32","w":221},"a":{"d":"128,-180v21,0,35,39,27,39v-42,0,-138,122,-112,122v9,0,84,-83,80,-89v-4,-6,25,-1,25,25v0,26,-34,64,-22,64v11,0,65,-59,97,-107v5,-8,17,-3,8,8v-12,15,-114,183,-145,87v0,-9,7,-22,7,-22v0,0,-46,53,-59,53v-13,0,-34,-16,-34,-42v0,-42,88,-138,128,-138","w":173,"k":{"t":2,"s":2,"z":-1,"w":1,"q":-2,"j":2,"f":2,"d":-2,"b":1,"i":2,"n":2,"m":2}},"s":{"d":"189,-128v5,-8,17,-5,9,7v-3,11,-32,42,-81,56v-1,53,-35,65,-54,65v-8,0,-35,-8,-35,-31v0,-31,56,-42,56,-42v0,0,7,-42,1,-78r0,-5v-7,12,-17,27,-27,40v-7,9,-15,1,-9,-7v12,-18,34,-50,40,-71v2,-9,8,-27,14,-22v8,6,32,22,32,43v0,19,-16,19,-18,93v31,-7,54,-21,72,-48xm40,-29v0,16,32,16,44,-31v0,0,-44,11,-44,31","w":136},"t":{"d":"254,-207v3,13,-9,11,-9,11v4,-15,-44,-38,-85,-32v-44,80,-129,209,-103,209v11,0,70,-59,102,-107v5,-8,16,-4,8,8v-8,12,-88,118,-121,118v-27,0,-31,-25,-31,-42v0,-25,51,-110,91,-182v-41,5,-100,-6,-100,-30v-4,-13,1,-15,7,-10v13,19,76,19,107,15v18,-34,30,-62,30,-74v0,-10,35,3,35,39v0,6,-4,18,-12,33v47,-3,76,23,81,44","w":109,"k":{"s":1}},"\u00a0":{"w":116}}});
